{"learner":{"attributes":{"scikit_learn":"{\"_estimator_type\": \"classifier\"}"},"feature_names":[],"feature_types":[],"gradient_booster":{"model":{"cats":{"enc":[],"feature_segments":[],"sorted_idx":[]},"gbtree_model_param":{"num_parallel_tree":"1","num_trees":"200"},"iteration_indptr":[0,1,2,3,4,5,6,7,8,9,10,11,12,13,14,15,16,17,18,19,20,21,22,23,24,25,26,27,28,29,30,31,32,33,34,35,36,37,38,39,40,41,42,43,44,45,46,47,48,49,50,51,52,53,54,55,56,57,58,59,60,61,62,63,64,65,66,67,68,69,70,71,72,73,74,75,76,77,78,79,80,81,82,83,84,85,86,87,88,89,90,91,92,93,94,95,96,97,98,99,100,101,102,103,104,105,106,107,108,109,110,111,112,113,114,115,116,117,118,119,120,121,122,123,124,125,126,127,128,129,130,131,132,133,134,135,136,137,138,139,140,141,142,143,144,145,146,147,148,149,150,151,152,153,154,155,156,157,158,159,160,161,162,163,164,165,166,167,168,169,170,171,172,173,174,175,176,177,178,179,180,181,182,183,184,185,186,187,188,189,190,191,192,193,194,195,196,197,198,199,200],"tree_info":[0,0,0,0,0,0,0,0,0,0,0,0,0,0,0,0,0,0,0,0,0,0,0,0,0,0,0,0,0,0,0,0,0,0,0,0,0,0,0,0,0,0,0,0,0,0,0,0,0,0,0,0,0,0,0,0,0,0,0,0,0,0,0,0,0,0,0,0,0,0,0,0,0,0,0,0,0,0,0,0,0,0,0,0,0,0,0,0,0,0,0,0,0,0,0,0,0,0,0,0,0,0,0,0,0,0,0,0,0,0,0,0,0,0,0,0,0,0,0,0,0,0,0,0,0,0,0,0,0,0,0,0,0,0,0,0,0,0,0,0,0,0,0,0,0,0,0,0,0,0,0,0,0,0,0,0,0,0,0,0,0,0,0,0,0,0,0,0,0,0,0,0,0,0,0,0,0,0,0,0,0,0,0,0,0,0,0,0,0,0,0,0,0,0,0,0,0,0,0,0],"trees":[{"base_weights":[-1.632864E-2,1.3636364E-1,-8.7001644E-2,-1.4111798E-1,6.541353E-1,-2.3512957E-1,2.0930225E-1,8.571428E-1,-6.52174E-2,-2.8988776E-1,4.951456E-1,4.421052E-1,-4.0540552E-1,6.382972E-2,1.2222222E0,-2.329865E-1,-1.0105264E0,9.6E-1,-5.6756765E-1,7.61194E-1,-2.903227E-1,8.2191706E-2,-1.0851065E0,9.130435E-2,-5.454546E-1,1.3098592E-1,3.1578943E-2,1.4840982E-2,-3.415386E-2,2.7272722E-2,-1.4788733E-1,1.2545455E-1,1.0344822E-2,4.285714E-2,-1.20000005E-1,2.474226E-2,1.14159286E-1,-8.823531E-2,3.529411E-2,-6.666668E-2,4.363636E-2,-3.3333343E-2,-1.4482759E-1,-1.5789479E-2,-6.52174E-2],"categories":[],"categories_nodes":[],"categories_segments":[],"categories_sizes":[],"default_left":[0,0,0,0,0,0,0,0,0,0,0,0,0,0,0,0,0,0,0,0,0,0,0,0,0,0,0,0,0,0,0,0,0,0,0,0,0,0,0,0,0,0,0,0,0],"id":0,"left_children":[1,-1,3,5,7,9,11,13,-1,15,17,19,21,23,25,27,29,31,33,35,37,39,41,-1,43,-1,-1,-1,-1,-1,-1,-1,-1,-1,-1,-1,-1,-1,-1,-1,-1,-1,-1,-1,-1],"loss_changes":[2.2018705E1,0E0,8.69762E0,6.6635475E0,4.477934E0,6.4928274E0,6.33278E0,3.7514353E0,0E0,5.847005E0,6.1984997E0,7.6217923E0,4.1767035E0,3.2000675E0,3.0129433E-1,5.7962766E0,6.747304E0,1.9726653E0,3.104247E0,4.082327E0,4.2466793E0,2.4421754E0,9.4301796E-1,0E0,4.8678994E-2,0E0,0E0,0E0,0E0,0E0,0E0,0E0,0E0,0E0,0E0,0E0,0E0,0E0,0E0,0E0,0E0,0E0,0E0,0E0,0E0],"parents":[2147483647,0,0,2,2,3,3,4,4,5,5,6,6,7,7,9,9,10,10,11,11,12,12,13,13,14,14,15,15,16,16,17,17,18,18,19,19,20,20,21,21,22,22,24,24],"right_children":[2,-1,4,6,8,10,12,14,-1,16,18,20,22,24,26,28,30,32,34,36,38,40,42,-1,44,-1,-1,-1,-1,-1,-1,-1,-1,-1,-1,-1,-1,-1,-1,-1,-1,-1,-1,-1,-1],"split_conditions":[0E0,1.3636364E-1,8.809957E-2,9.794218E-1,3.4852955E-3,8.011088E-4,2.8670127E-2,1.3170028E-2,-6.52174E-2,5.723558E-3,1.9856498E-2,2.2820078E-1,1.401072E-2,1.6763967E-2,2.956345E-1,5.516142E-3,8.7E1,3.486419E-2,7.043921E-1,1.0535591E-3,2.9727927E-1,1.0636598E0,1.1553497E-3,9.130435E-2,1.16373606E-1,1.3098592E-1,3.1578943E-2,1.4840982E-2,-3.415386E-2,2.7272722E-2,-1.4788733E-1,1.2545455E-1,1.0344822E-2,4.285714E-2,-1.20000005E-1,2.474226E-2,1.14159286E-1,-8.823531E-2,3.529411E-2,-6.666668E-2,4.363636E-2,-3.3333343E-2,-1.4482759E-1,-1.5789479E-2,-6.52174E-2],"split_indices":[515,0,359,369,366,412,239,349,0,230,397,344,100,40,0,313,518,388,172,157,296,502,149,0,2,0,0,0,0,0,0,0,0,0,0,0,0,0,0,0,0,0,0,0,0],"split_type":[0,0,0,0,0,0,0,0,0,0,0,0,0,0,0,0,0,0,0,0,0,0,0,0,0,0,0,0,0,0,0,0,0,0,0,0,0,0,0,0,0,0,0,0,0],"sum_hessian":[2.2355554E2,9.999999E0,2.1355554E2,1.9977777E2,1.3777777E1,1.5777777E2,4.1999996E1,1.2222221E1,1.5555555E0,1.4733333E2,1.0444444E1,3.0666664E1,1.1333333E1,4.222222E0,7.9999995E0,1.3777777E2,9.555555E0,7.333333E0,3.111111E0,2.1333332E1,9.333333E0,7.1111107E0,4.222222E0,1.5555555E0,2.6666665E0,6.8888884E0,1.111111E0,3.0444443E1,1.0733333E2,2.6666665E0,6.8888884E0,5.1111107E0,2.222222E0,1.3333333E0,1.7777777E0,9.777777E0,1.1555555E1,4.6666665E0,4.6666665E0,1.9999999E0,5.1111107E0,1.9999999E0,2.222222E0,1.111111E0,1.5555555E0],"tree_param":{"num_deleted":"0","num_feature":"520","num_nodes":"45","size_leaf_vector":"1"}},{"base_weights":[-4.4717025E-3,1.304975E-1,-7.224633E-2,-3.7647106E-2,-1.0394504E0,-1.253958E-1,3.3750385E-1,-1.4417782E0,4.2874094E-2,-4.1061845E-1,1.7492899E-3,-2.2795282E-1,6.1176866E-1,-1.9964391E-1,-1.0370489E-2,7.3892045E-1,-5.1165664E-1,4.538067E-1,-1.2860437E-1,-6.8987906E-1,5.3302276E-1,-1.1434227E-1,9.2886955E-1,1.07407205E-1,-1.6179264E-2,-6.1712064E-2,5.667472E-2,-1.2591279E-1,5.968007E-2,-2.932322E-2,3.37114E-2,-1.1103373E-1,3.9836507E-2,8.95569E-2,-2.58252E-2,-8.0811545E-2,3.9089914E-2,1.09457135E-1,-2.0245356E-2],"categories":[],"categories_nodes":[],"categories_segments":[],"categories_sizes":[],"default_left":[0,0,0,0,0,0,0,0,0,0,0,0,0,0,0,0,0,0,0,0,0,0,0,0,0,0,0,0,0,0,0,0,0,0,0,0,0,0,0],"id":1,"left_children":[1,-1,3,5,7,9,11,13,-1,15,17,19,21,-1,-1,23,25,27,29,31,33,35,37,-1,-1,-1,-1,-1,-1,-1,-1,-1,-1,-1,-1,-1,-1,-1,-1],"loss_changes":[1.9728506E1,0E0,7.0318437E0,6.7919617E0,4.906587E0,6.0532646E0,6.209242E0,4.192337E0,0E0,6.3555E0,6.9195714E0,5.1172876E0,6.237035E0,0E0,0E0,1.5524709E0,5.797222E0,7.1886983E0,7.0876565E0,4.4889026E0,1.8572563E0,3.4649985E0,3.7164135E0,0E0,0E0,0E0,0E0,0E0,0E0,0E0,0E0,0E0,0E0,0E0,0E0,0E0,0E0,0E0,0E0],"parents":[2147483647,0,0,2,2,3,3,4,4,5,5,6,6,7,7,9,9,10,10,11,11,12,12,15,15,16,16,17,17,18,18,19,19,20,20,21,21,22,22],"right_children":[2,-1,4,6,8,10,12,14,-1,16,18,20,22,-1,-1,24,26,28,30,32,34,36,38,-1,-1,-1,-1,-1,-1,-1,-1,-1,-1,-1,-1,-1,-1,-1,-1],"split_conditions":[0E0,1.304975E-1,7.6652445E-2,5.5803426E-2,6.800457E-2,1.0826359E-2,9.045709E-2,9.233432E-2,4.2874094E-2,1.4197794E-1,4.1812256E-2,1.0586235E-2,5.601763E-4,-1.9964391E-1,-1.0370489E-2,1.8944088E-2,1.44818E-5,1.3599649E-1,2.848696E-1,6.843259E-3,6.273323E-2,5.3108956E-6,5.310373E-2,1.07407205E-1,-1.6179264E-2,-6.1712064E-2,5.667472E-2,-1.2591279E-1,5.968007E-2,-2.932322E-2,3.37114E-2,-1.1103373E-1,3.9836507E-2,8.95569E-2,-2.58252E-2,-8.0811545E-2,3.9089914E-2,1.09457135E-1,-2.0245356E-2],"split_indices":[515,0,33,277,118,300,341,365,0,259,404,170,51,0,0,43,475,454,454,142,386,256,222,0,0,0,0,0,0,0,0,0,0,0,0,0,0,0,0],"split_type":[0,0,0,0,0,0,0,0,0,0,0,0,0,0,0,0,0,0,0,0,0,0,0,0,0,0,0,0,0,0,0,0,0,0,0,0,0,0,0],"sum_hessian":[2.2023758E2,9.939811E0,2.1029778E2,2.0403778E2,6.2599983E0,1.6589929E2,3.813849E1,4.927664E0,1.3323348E0,5.0464195E1,1.1543509E2,1.2511719E1,2.5626772E1,3.1357858E0,1.791878E0,3.5670953E0,4.6897102E1,2.5280998E1,9.015409E1,7.8438096E0,4.667909E0,7.984026E0,1.7642746E1,2.4594688E0,1.1076267E0,4.3108948E1,3.7881532E0,1.3464403E0,2.3934557E1,6.688213E1,2.3271954E1,5.643185E0,2.2006242E0,3.1107981E0,1.5571108E0,3.1117105E0,4.8723154E0,1.5417127E1,2.2256196E0],"tree_param":{"num_deleted":"0","num_feature":"520","num_nodes":"39","size_leaf_vector":"1"}},{"base_weights":[-1.8941142E-2,1.2419152E-1,-7.721764E-2,-3.893016E-1,5.36659E-2,3.0819336E-1,-5.579579E-1,1.2992954E-1,-1.6419353E-2,-3.2298118E-1,8.749483E-1,-7.5586903E-1,1.7324659E-1,3.6148477E-1,-1.433963E-1,-8.715555E-1,4.7333276E-1,1.2418198E-1,-2.5208388E-2,-9.620612E-1,-1.3676019E-3,7.5043225E-1,-6.6962004E-1,-3.163819E-1,5.4989046E-1,2.861957E-1,-2.6340243E-1,-1.2503283E-2,-1.0927731E-1,-1.9249773E-2,8.6492755E-2,-1.226302E-1,-3.8097553E-2,8.919185E-2,-6.3333504E-2,1.0728017E-1,-2.9613277E-2,4.3135785E-2,-1.1535092E-1,-7.0414E-2,8.88842E-2,6.584566E-3,8.516968E-2,7.093159E-2,-1.2016133E-2,-4.1405372E-2,1.3031281E-2],"categories":[],"categories_nodes":[],"categories_segments":[],"categories_sizes":[],"default_left":[0,0,0,0,0,0,0,0,0,0,0,0,0,0,0,0,0,0,0,0,0,0,0,0,0,0,0,0,0,0,0,0,0,0,0,0,0,0,0,0,0,0,0,0,0,0,0],"id":2,"left_children":[1,-1,3,5,7,9,11,-1,13,15,17,19,21,23,25,27,29,-1,-1,31,33,35,37,39,41,43,45,-1,-1,-1,-1,-1,-1,-1,-1,-1,-1,-1,-1,-1,-1,-1,-1,-1,-1,-1,-1],"loss_changes":[1.6314064E1,0E0,8.676748E0,7.5518465E0,1.3131786E1,4.8828115E0,7.493209E0,0E0,6.921599E0,3.3893661E0,3.2260962E0,6.2564697E0,6.170296E0,4.8086777E0,5.6367264E0,5.878289E-1,1.0602098E0,0E0,0E0,4.3832836E0,6.0039406E0,2.8097792E0,3.3018649E0,4.611039E0,4.1457376E0,4.217586E0,5.0861773E0,0E0,0E0,0E0,0E0,0E0,0E0,0E0,0E0,0E0,0E0,0E0,0E0,0E0,0E0,0E0,0E0,0E0,0E0,0E0,0E0],"parents":[2147483647,0,0,2,2,3,3,4,4,5,5,6,6,8,8,9,9,10,10,11,11,12,12,13,13,14,14,15,15,16,16,19,19,20,20,21,21,22,22,23,23,24,24,25,25,26,26],"right_children":[2,-1,4,6,8,10,12,-1,14,16,18,20,22,24,26,28,30,-1,-1,32,34,36,38,40,42,44,46,-1,-1,-1,-1,-1,-1,-1,-1,-1,-1,-1,-1,-1,-1,-1,-1,-1,-1,-1,-1],"split_conditions":[0E0,1.2419152E-1,2.0020747E0,1.2899824E-2,3E0,3.1051256E-2,4.644707E-1,1.2992954E-1,3.8624358E-1,9.790204E-2,2.6031396E-1,7.4217767E-1,5.1767647E-2,7.853684E-3,1.2700875E-1,1.4906779E-2,1.2436626E-2,1.2418198E-1,-2.5208388E-2,3.2933755E-3,2.252624E-1,2.0287053E-3,1.5021998E-3,1.661245E-2,2.8331508E-3,8.693306E-3,3.6131524E-2,-1.2503283E-2,-1.0927731E-1,-1.9249773E-2,8.6492755E-2,-1.226302E-1,-3.8097553E-2,8.919185E-2,-6.3333504E-2,1.0728017E-1,-2.9613277E-2,4.3135785E-2,-1.1535092E-1,-7.0414E-2,8.88842E-2,6.584566E-3,8.516968E-2,7.093159E-2,-1.2016133E-2,-4.1405372E-2,1.3031281E-2],"split_indices":[515,0,515,152,515,342,393,0,491,245,108,171,168,425,59,69,94,0,0,144,218,394,31,415,174,84,342,0,0,0,0,0,0,0,0,0,0,0,0,0,0,0,0,0,0,0,0],"split_type":[0,0,0,0,0,0,0,0,0,0,0,0,0,0,0,0,0,0,0,0,0,0,0,0,0,0,0,0,0,0,0,0,0,0,0,0,0,0,0,0,0,0,0,0,0,0,0],"sum_hessian":[2.1972052E2,8.809502E0,2.1091101E2,6.1734463E1,1.4917654E2,1.1859786E1,4.987468E1,7.012056E0,1.4216449E2,5.8145046E0,6.0452814E0,3.922431E1,1.0650364E1,3.528971E1,1.0687479E2,3.3868458E0,2.4276586E0,4.48385E0,1.5614316E0,3.058961E1,8.634706E0,6.386575E0,4.2637887E0,7.5274324E0,2.7762278E1,2.3033993E1,8.384079E1,1.1319984E0,2.2548475E0,1.087316E0,1.3403425E0,2.0264322E1,1.0325286E1,3.4072382E0,5.227467E0,4.863439E0,1.523136E0,1.3349589E0,2.92883E0,6.0096884E0,1.5177441E0,1.1129949E1,1.6632328E1,1.0919004E1,1.2114987E1,6.0600822E1,2.323997E1],"tree_param":{"num_deleted":"0","num_feature":"520","num_nodes":"47","size_leaf_vector":"1"}},{"base_weights":[2.0324314E-2,1.2000318E-1,-3.2295726E-2,-3.0410185E-1,1.3256848E-1,-1.7524879E-1,-1.110818E0,1.2715961E-1,7.27923E-2,-3.1722784E-1,1.2233665E-1,-3.7463197E-1,-1.9206221E0,-5.479216E-1,1.3672282E-1,-1.7180054E-1,-1.0310246E0,-1.0347555E-1,1.5714838E-1,-2.1456127E-1,-6.0083248E-2,-8.77062E-1,7.089539E-2,1.16377674E-1,9.365567E-2,2.7246237E-2,-4.0580746E-2,5.448082E-2,-1.3503031E-1,-3.3462208E-2,8.3517514E-2,-1.0481341E-1,4.557323E-6,8.555453E-2,-4.1675095E-2,-2.5272663E-3,4.7242247E-2],"categories":[],"categories_nodes":[],"categories_segments":[],"categories_sizes":[],"default_left":[0,0,0,0,0,0,0,0,0,0,0,0,0,0,0,0,0,0,0,0,0,0,0,0,0,0,0,0,0,0,0,0,0,0,0,0,0],"id":3,"left_children":[1,-1,3,5,7,9,11,-1,13,15,-1,17,19,21,23,25,27,-1,29,-1,-1,31,33,-1,35,-1,-1,-1,-1,-1,-1,-1,-1,-1,-1,-1,-1],"loss_changes":[1.4083535E1,0E0,9.789569E0,8.37524E0,9.175339E0,1.4740389E1,5.9381523E0,0E0,5.249221E0,6.716592E0,0E0,2.6521754E0,2.179718E-1,2.5827818E0,5.1554008E0,5.9708014E0,6.2903214E0,0E0,1.8786018E0,0E0,0E0,1.2234468E0,2.3546875E0,0E0,5.2064166E0,0E0,0E0,0E0,0E0,0E0,0E0,0E0,0E0,0E0,0E0,0E0,0E0],"parents":[2147483647,0,0,2,2,3,3,4,4,5,5,6,6,8,8,9,9,11,11,12,12,13,13,14,14,15,15,16,16,18,18,21,21,22,22,24,24],"right_children":[2,-1,4,6,8,10,12,-1,14,16,-1,18,20,22,24,26,28,-1,30,-1,-1,32,34,-1,36,-1,-1,-1,-1,-1,-1,-1,-1,-1,-1,-1,-1],"split_conditions":[0E0,1.2000318E-1,3.1208124E0,3E0,4E0,2.0020747E0,7.040066E-4,1.2715961E-1,4.028982E0,4.4317607E-2,1.2233665E-1,3.077372E0,4.3476403E-2,1.1903306E-1,5E0,1.4442568E-2,2.2776483E-3,-1.0347555E-1,1.8577866E-2,-2.1456127E-1,-6.0083248E-2,7.705116E-6,6.127972E-2,1.16377674E-1,1.3269107E-1,2.7246237E-2,-4.0580746E-2,5.448082E-2,-1.3503031E-1,-3.3462208E-2,8.3517514E-2,-1.0481341E-1,4.557323E-6,8.555453E-2,-4.1675095E-2,-2.5272663E-3,4.7242247E-2],"split_indices":[515,0,515,515,515,515,190,0,515,233,0,441,173,4,515,57,107,0,44,0,0,509,338,0,2,0,0,0,0,0,0,0,0,0,0,0,0],"split_type":[0,0,0,0,0,0,0,0,0,0,0,0,0,0,0,0,0,0,0,0,0,0,0,0,0,0,0,0,0,0,0,0,0,0,0,0,0],"sum_hessian":[2.2525043E2,8.687037E0,2.165634E2,8.144431E1,1.3511908E2,7.127683E1,1.0167482E1,5.7266107E0,1.2939247E2,6.540998E1,5.866845E0,6.0919566E0,4.0755258E0,1.1375447E1,1.1801703E2,5.5369762E1,1.0040221E1,2.2959971E0,3.7959597E0,2.9473536E0,1.1281724E0,7.1533546E0,4.222093E0,3.7023358E0,1.1431469E2,1.9046185E1,3.6323578E1,1.5725188E0,8.467702E0,2.4937372E0,1.3022224E0,5.8226995E0,1.3306551E0,1.3290846E0,2.8930087E0,8.770852E1,2.660617E1],"tree_param":{"num_deleted":"0","num_feature":"520","num_nodes":"37","size_leaf_vector":"1"}},{"base_weights":[2.827321E-2,1.1633787E-1,-2.27193E-2,-8.726291E-2,4.3370402E-1,-3.8439367E-2,-1.1245828E0,7.091956E-1,-4.933939E-1,-9.517569E-1,-1.0228166E-3,-1.389892E0,3.187993E-2,-1.289405E-1,1.048888E0,1.3062556E-1,-1.0192398E0,-1.00881726E-1,-1.376617E0,2.4573047E-1,-1.2421659E-1,-1.7087251E0,-1.7148567E-2,-7.256686E-1,5.794379E-1,1.2812808E0,-1.8646261E-1,-3.970807E-2,7.820406E-2,-3.6961835E-2,-1.24027014E-1,2.8860508E-2,-4.0325325E-2,-1.5115562E-2,-1.7201558E-1,8.311942E-2,8.088307E-3,-2.6461903E-2,2.2799015E-2,-2.0096493E-1,-5.8336258E-2,2.6092185E-3,-1.0915541E-1,-1.1725098E-2,9.3139194E-2,1.3561125E-1,2.0878498E-2,-6.251039E-2,3.3661854E-2],"categories":[],"categories_nodes":[],"categories_segments":[],"categories_sizes":[],"default_left":[0,0,0,0,0,0,0,0,0,0,0,0,0,0,0,0,0,0,0,0,0,0,0,0,0,0,0,0,0,0,0,0,0,0,0,0,0,0,0,0,0,0,0,0,0,0,0,0,0],"id":4,"left_children":[1,-1,3,5,7,9,11,13,15,17,19,21,-1,23,25,27,29,31,33,35,37,39,-1,41,43,45,47,-1,-1,-1,-1,-1,-1,-1,-1,-1,-1,-1,-1,-1,-1,-1,-1,-1,-1,-1,-1,-1,-1],"loss_changes":[1.2817393E1,0E0,6.2968755E0,9.426196E0,7.1156917E0,6.1366954E0,3.6480703E0,6.066284E0,2.3179255E0,2.4159913E0,5.3057957E0,2.5258608E0,0E0,3.3365772E0,4.5260887E0,1.6619182E0,7.670355E-2,5.206522E-1,1.6911335E0,5.5424814E0,5.8170347E0,7.375679E-1,0E0,1.1805222E0,1.0189649E0,7.357998E-1,9.5323014E-1,0E0,0E0,0E0,0E0,0E0,0E0,0E0,0E0,0E0,0E0,0E0,0E0,0E0,0E0,0E0,0E0,0E0,0E0,0E0,0E0,0E0,0E0],"parents":[2147483647,0,0,2,2,3,3,4,4,5,5,6,6,7,7,8,8,9,9,10,10,11,11,13,13,14,14,15,15,16,16,17,17,18,18,19,19,20,20,21,21,23,23,24,24,25,25,26,26],"right_children":[2,-1,4,6,8,10,12,14,16,18,20,22,-1,24,26,28,30,32,34,36,38,40,-1,42,44,46,48,-1,-1,-1,-1,-1,-1,-1,-1,-1,-1,-1,-1,-1,-1,-1,-1,-1,-1,-1,-1,-1,-1],"split_conditions":[0E0,1.1633787E-1,6.028279E-3,5.7702363E-2,1.4063042E-1,1.5867761E-1,7.686703E-2,3.8737144E-2,1.4735068E-2,6.0508016E-2,7.8994416E-2,4.6711415E-2,3.187993E-2,3.9643394E-3,2.9432273E-2,1.0135427E-1,4.130974E-3,7.152735E-2,6.0236547E-3,3.4430882E-1,7.030876E-3,3.4427773E-2,-1.7148567E-2,2.8490271E-2,4.727706E-3,1.2544202E-2,3.2877875E-4,-3.970807E-2,7.820406E-2,-3.6961835E-2,-1.24027014E-1,2.8860508E-2,-4.0325325E-2,-1.5115562E-2,-1.7201558E-1,8.311942E-2,8.088307E-3,-2.6461903E-2,2.2799015E-2,-2.0096493E-1,-5.8336258E-2,2.6092185E-3,-1.0915541E-1,-1.1725098E-2,9.3139194E-2,1.3561125E-1,2.0878498E-2,-6.251039E-2,3.3661854E-2],"split_indices":[515,0,271,385,196,99,146,138,53,373,436,168,0,205,261,283,149,6,480,464,142,279,0,177,23,90,130,0,0,0,0,0,0,0,0,0,0,0,0,0,0,0,0,0,0,0,0,0,0],"split_type":[0,0,0,0,0,0,0,0,0,0,0,0,0,0,0,0,0,0,0,0,0,0,0,0,0,0,0,0,0,0,0,0,0,0,0,0,0,0,0,0,0,0,0,0,0,0,0,0,0],"sum_hessian":[2.1998389E2,8.519654E0,2.1146423E2,1.8597412E2,2.5490114E1,1.7860478E2,7.3693376E0,1.9831982E1,5.658132E0,6.0673485E0,1.7253745E2,6.2564025E0,1.1129352E0,5.8985868E0,1.3933394E1,2.9312353E0,2.7268968E0,2.4327273E0,3.6346211E0,5.7124393E1,1.1541305E2,4.6398244E0,1.6165781E0,3.1883538E0,2.710233E0,1.169598E1,2.2374146E0,1.8350827E0,1.0961525E0,1.3706691E0,1.3562276E0,1.0831031E0,1.3496243E0,1.1111073E0,2.5235138E0,1.1662443E1,4.546195E1,8.269607E1,3.271698E1,3.0409017E0,1.5989226E0,1.3478014E0,1.8405523E0,1.1334462E0,1.5767868E0,1.068594E1,1.0100408E0,1.1108469E0,1.1265676E0],"tree_param":{"num_deleted":"0","num_feature":"520","num_nodes":"49","size_leaf_vector":"1"}},{"base_weights":[1.6024193E-2,1.13790445E-1,-3.4653444E-2,-4.0332535E-1,3.7694976E-2,1.6305497E-1,-6.861514E-1,5.8825992E-2,-1.21986866E-1,6.9992465E-1,-6.3313687E-1,5.430153E-2,-7.964137E-1,3.039936E-1,-4.120345E-2,-5.7894375E-2,9.913307E-1,2.058967E-2,-1.0198058E0,-9.195911E-1,5.2527983E-2,1.2955202E-1,8.329383E-1,-1.707604E-1,2.4924876E-1,1.23606734E-1,-1.5318947E-2,-1.3825642E-1,-3.819626E-2,3.047326E-2,-1.06223024E-1,-4.6785183E-2,2.9651804E-2,1.06738664E-1,-2.6999248E-2,-1.2795368E-1,-9.71939E-3,-2.850292E-2,6.416993E-2],"categories":[],"categories_nodes":[],"categories_segments":[],"categories_sizes":[],"default_left":[0,0,0,0,0,0,0,0,0,0,0,0,0,0,0,0,0,0,0,0,0,0,0,0,0,0,0,0,0,0,0,0,0,0,0,0,0,0,0],"id":5,"left_children":[1,-1,3,5,7,9,11,13,-1,15,17,-1,19,21,23,-1,25,-1,27,29,-1,31,33,35,37,-1,-1,-1,-1,-1,-1,-1,-1,-1,-1,-1,-1,-1,-1],"loss_changes":[1.2911965E1,0E0,5.819154E0,5.8436837E0,4.929837E0,5.8824954E0,3.6929083E0,4.4452057E0,0E0,3.5833077E0,2.0429533E0,0E0,4.143158E0,4.735879E0,4.9063644E0,0E0,2.1347795E0,0E0,4.0566015E-1,3.978632E0,0E0,4.194495E0,3.6070414E0,7.2149305E0,8.627924E0,0E0,0E0,0E0,0E0,0E0,0E0,0E0,0E0,0E0,0E0,0E0,0E0,0E0,0E0],"parents":[2147483647,0,0,2,2,3,3,4,4,5,5,6,6,7,7,9,9,10,10,12,12,13,13,14,14,16,16,18,18,19,19,21,21,22,22,23,23,24,24],"right_children":[2,-1,4,6,8,10,12,14,-1,16,18,-1,20,22,24,-1,26,-1,28,30,-1,32,34,36,38,-1,-1,-1,-1,-1,-1,-1,-1,-1,-1,-1,-1,-1,-1],"split_conditions":[0E0,1.13790445E-1,9.637705E-3,7.627531E-2,6.2457277E-3,5.55878E-1,1.606207E-1,6.654056E-1,-1.21986866E-1,8.516306E-1,1.1564386E-1,5.430153E-2,1.5924348E-2,1.6119108E-2,3.552419E-2,-5.7894375E-2,1.6869346E-2,2.058967E-2,7.08503E-2,5.131113E-1,5.2527983E-2,7.705605E-2,3.3525854E-2,8.039635E-1,1.8617405E-2,1.23606734E-1,-1.5318947E-2,-1.3825642E-1,-3.819626E-2,3.047326E-2,-1.06223024E-1,-4.6785183E-2,2.9651804E-2,1.06738664E-1,-2.6999248E-2,-1.2795368E-1,-9.71939E-3,-2.850292E-2,6.416993E-2],"split_indices":[515,0,489,101,475,382,17,76,0,369,503,0,217,453,95,0,410,0,275,440,0,283,312,124,426,0,0,0,0,0,0,0,0,0,0,0,0,0,0],"split_type":[0,0,0,0,0,0,0,0,0,0,0,0,0,0,0,0,0,0,0,0,0,0,0,0,0,0,0,0,0,0,0,0,0,0,0,0,0,0,0],"sum_hessian":[2.254129E2,8.81506E0,2.1659785E2,3.478192E1,1.8181593E2,1.1725071E1,2.3056852E1,1.7974881E2,2.0671222E0,7.0751967E0,4.6498737E0,1.5749613E0,2.1481892E1,5.149583E1,1.2825298E2,1.1298771E0,5.9453197E0,1.6143671E0,3.0355067E0,1.9928823E1,1.5530673E0,3.9660915E1,1.1834915E1,8.897675E1,3.927622E1,4.832073E0,1.1132462E0,1.19074E0,1.8447666E0,1.9609424E0,1.796788E1,8.269737E0,3.1391178E1,9.786781E0,2.0481339E0,4.5162344E0,8.4460526E1,1.6748589E1,2.2527632E1],"tree_param":{"num_deleted":"0","num_feature":"520","num_nodes":"39","size_leaf_vector":"1"}},{"base_weights":[3.535363E-2,-6.208927E-1,6.8728946E-2,-9.8033655E-1,1.9256422E-1,2.796478E-2,6.205344E-1,1.8470342E-1,-1.5547608E0,-2.6574213E-2,7.690414E-2,-2.8542612E-2,4.7948956E-1,8.479672E-1,-3.048486E-1,7.635529E-2,-4.08012E-2,-1.882091E-1,-3.6776926E-2,-2.034369E-3,-1.2488511E0,8.513625E-1,-7.5308375E-2,1.0372307E0,-1.7911224E-2,3.3921633E-2,-7.826121E-2,-1.7643972E-1,1.677746E-1,-4.1373186E-2,-1.542774E-1,-3.0986164E-2,1.0863434E0,-5.3438044E-1,6.533924E-1,-1.5030803E-2,1.1996874E0,-3.6642887E-2,2.3545733E-2,6.8751894E-2,2.7829382E-4,1.3199694E-1,-9.295848E-3,-9.730353E-2,5.0059438E-2,1.0086453E-1,-1.9741476E-2,2.4064746E-2,1.292226E-1],"categories":[],"categories_nodes":[],"categories_segments":[],"categories_sizes":[],"default_left":[0,0,0,0,0,0,0,0,0,0,0,0,0,0,0,0,0,0,0,0,0,0,0,0,0,0,0,0,0,0,0,0,0,0,0,0,0,0,0,0,0,0,0,0,0,0,0,0,0],"id":6,"left_children":[1,3,5,7,9,11,13,15,17,-1,-1,19,21,23,25,-1,-1,-1,-1,27,29,31,33,35,-1,-1,-1,37,39,-1,-1,-1,41,43,45,-1,47,-1,-1,-1,-1,-1,-1,-1,-1,-1,-1,-1,-1],"loss_changes":[4.875263E0,3.340168E0,4.725793E0,5.399501E0,1.297852E0,5.0503774E0,3.3014908E0,1.4837155E0,1.3370256E0,0E0,0E0,5.7034287E0,4.605745E0,2.4932861E0,1.3695464E0,0E0,0E0,0E0,0E0,5.1721544E0,2.81837E-1,3.9549608E0,3.611663E0,2.1425009E0,0E0,0E0,0E0,6.8280106E0,7.5867243E0,0E0,0E0,0E0,3.222455E0,3.4532127E0,1.4744028E0,0E0,4.929247E-1,0E0,0E0,0E0,0E0,0E0,0E0,0E0,0E0,0E0,0E0,0E0,0E0],"parents":[2147483647,0,0,1,1,2,2,3,3,4,4,5,5,6,6,7,7,8,8,11,11,12,12,13,13,14,14,19,19,20,20,21,21,22,22,23,23,27,27,28,28,32,32,33,33,34,34,36,36],"right_children":[2,4,6,8,10,12,14,16,18,-1,-1,20,22,24,26,-1,-1,-1,-1,28,30,32,34,36,-1,-1,-1,38,40,-1,-1,-1,42,44,46,-1,48,-1,-1,-1,-1,-1,-1,-1,-1,-1,-1,-1,-1],"split_conditions":[7.270472E-1,1.9267167E-1,1.4757665E-1,1.3433701E-3,7.311709E-2,1.0888751E-2,1.3522011E-1,1.0322313E-1,9.192094E-3,-2.6574213E-2,7.690414E-2,2.2094652E-1,3.6905666E-3,1.00186564E-1,2.8682867E-1,7.635529E-2,-4.08012E-2,-1.882091E-1,-3.6776926E-2,8.923755E-3,6.0989692E-5,5.2114125E-2,1.8545795E-2,1.1666885E-2,-1.7911224E-2,3.3921633E-2,-7.826121E-2,1.3338027E1,7.0145708E-3,-4.1373186E-2,-1.542774E-1,-3.0986164E-2,3.4796435E-3,8.661889E-3,4.1784734E-1,-1.5030803E-2,6.4974315E-3,-3.6642887E-2,2.3545733E-2,6.8751894E-2,2.7829382E-4,1.3199694E-1,-9.295848E-3,-9.730353E-2,5.0059438E-2,1.0086453E-1,-1.9741476E-2,2.4064746E-2,1.292226E-1],"split_indices":[474,175,4,256,2,477,494,52,73,0,0,250,415,456,32,0,0,0,0,425,60,40,37,27,0,0,0,516,239,0,0,0,280,170,496,0,380,0,0,0,0,0,0,0,0,0,0,0,0],"split_type":[0,0,0,0,0,0,0,0,0,0,0,0,0,0,0,0,0,0,0,0,0,0,0,0,0,0,0,0,0,0,0,0,0,0,0,0,0,0,0,0,0,0,0,0,0,0,0,0,0],"sum_hessian":[2.196417E2,9.777962E0,2.0986374E2,6.639156E0,3.1388056E0,1.9640515E2,1.3458588E1,2.4164984E0,4.222657E0,2.0489163E0,1.0898893E0,1.7539198E2,2.1013157E1,1.087057E1,2.5880182E0,1.0767295E0,1.339769E0,2.8508866E0,1.3717709E0,1.726434E2,2.7485921E0,1.2260547E1,8.752611E0,9.170758E0,1.6998117E0,1.2256844E0,1.3623337E0,8.514976E1,8.749364E1,1.3423139E0,1.4062784E0,2.0098143E0,1.0250732E1,5.5333433E0,3.2192676E0,1.1125957E0,8.058163E0,5.8347248E1,2.6802511E1,2.0319063E1,6.7174576E1,8.456228E0,1.7945044E0,3.9282663E0,1.6050767E0,2.14014E0,1.0791276E0,1.0259597E0,7.0322027E0],"tree_param":{"num_deleted":"0","num_feature":"520","num_nodes":"49","size_leaf_vector":"1"}},{"base_weights":[3.815757E-3,1.0758624E-1,-3.537764E-2,-5.825172E-1,2.0884046E-2,-9.354598E-1,8.938946E-2,1.2711942E-1,-2.5390688E-2,3.6317647E-2,-1.0877163E0,-2.9032242E-1,9.162526E-2,-5.8874744E-1,4.4084337E-2,-1.2884879E0,-2.4490747E-1,4.992645E-2,-6.252185E-2,-1.1624411E0,-1.5385273E-1,1.23693384E-1,-5.5556727E-4,-1.7345083E-1,-6.1068732E-2,-4.497152E-3,-3.236942E-2,-1.4795813E-1,1.7847022E-2,1.8089565E-2,-8.950707E-2,-3.5685014E-3,9.139464E-2],"categories":[],"categories_nodes":[],"categories_segments":[],"categories_sizes":[],"default_left":[0,0,0,0,0,0,0,0,0,0,0,0,0,0,0,0,0,0,0,0,0,0,0,0,0,0,0,0,0,0,0,0,0],"id":7,"left_children":[1,-1,3,5,7,9,11,-1,13,-1,15,17,-1,19,21,23,25,-1,-1,27,29,-1,31,-1,-1,-1,-1,-1,-1,-1,-1,-1,-1],"loss_changes":[9.378223E0,0E0,6.643497E0,4.8551455E0,1.1389824E1,3.0205727E0,2.7281783E0,0E0,7.4731956E0,0E0,1.7379179E0,1.9340357E0,0E0,5.0503354E0,9.069827E0,1.8327227E0,4.1669235E-2,0E0,0E0,4.0423746E0,3.4058976E0,0E0,5.338935E0,0E0,0E0,0E0,0E0,0E0,0E0,0E0,0E0,0E0,0E0],"parents":[2147483647,0,0,2,2,3,3,4,4,5,5,6,6,8,8,10,10,11,11,13,13,14,14,15,15,16,16,19,19,20,20,22,22],"right_children":[2,-1,4,6,8,10,12,-1,14,-1,16,18,-1,20,22,24,26,-1,-1,28,30,-1,32,-1,-1,-1,-1,-1,-1,-1,-1,-1,-1],"split_conditions":[0E0,1.0758624E-1,1.0783815E-1,1.1865896E1,1E0,1.4121972E-2,1.20889675E-2,1.2711942E-1,1.1164231E0,3.6317647E-2,2.6038837E-2,1.2700875E-1,9.162526E-2,4.1341498E-3,2E0,4.6645474E-1,9.613483E-3,4.992645E-2,-6.252185E-2,1.048411E-1,4.838168E-2,1.23693384E-1,1.7932868E-1,-1.7345083E-1,-6.1068732E-2,-4.497152E-3,-3.236942E-2,-1.4795813E-1,1.7847022E-2,1.8089565E-2,-8.950707E-2,-3.5685014E-3,9.139464E-2],"split_indices":[515,0,515,516,515,431,495,0,515,0,422,59,0,485,515,390,47,0,0,40,146,0,7,0,0,0,0,0,0,0,0,0,0],"split_type":[0,0,0,0,0,0,0,0,0,0,0,0,0,0,0,0,0,0,0,0,0,0,0,0,0,0,0,0,0,0,0,0,0],"sum_hessian":[2.2129404E2,6.8721395E0,2.144219E2,1.9120749E1,1.9530115E2,1.22786875E1,6.8420596E0,6.0255136E0,1.8927563E2,1.1431519E0,1.1135536E1,5.1335287E0,1.7085309E0,1.995895E1,1.693167E2,8.566134E0,2.5694017E0,1.382707E0,3.7508218E0,7.8847775E0,1.2074172E1,5.1442757E0,1.6417241E2,4.2261386E0,4.339996E0,1.1703138E0,1.3990878E0,6.2929997E0,1.5917778E0,8.838488E0,3.235684E0,1.5902466E2,5.147754E0],"tree_param":{"num_deleted":"0","num_feature":"520","num_nodes":"33","size_leaf_vector":"1"}},{"base_weights":[-2.3936765E-2,-1.9359191E-1,1.0068235E-1,-3.6928186E-1,1.8467133E-1,1.7587839E-1,-4.0204602E-1,-1.6458084E-1,-8.9042455E-1,3.3257473E-1,-9.5450485E-1,3.3366805E-1,-1.21257514E-1,1.5180483E-1,-7.744857E-1,-4.231571E-1,1.5824893E-1,-1.1035875E0,3.924987E-1,5.265592E-2,8.258174E-1,-1.5107019E-1,2.9750604E-3,-2.2450165E-1,4.7080472E-1,-5.315999E-1,1.1393585E-1,-4.903283E-1,7.1990293E-1,-1.1197584E0,8.9069396E-2,-1.0217585E-1,-7.141043E-1,-6.616372E-1,3.6329767E-1,-1.279692E0,1.9482248E-2,-1.7369008E-2,7.527949E-2,-4.6603703E-1,4.5931965E-1,1.2376153E-1,-1.662465E-2,3.969128E-1,-7.9254466E-1,2.194772E-1,8.962757E-1,-7.998045E-2,-1.2585245E0,-6.565635E-2,1.1037296E-1,3.690963E-2,-9.257493E-2,1.0177691E-1,-9.29865E-3,-1.2948213E0,-1.1947128E-2,7.050158E-2,-3.804873E-2,8.416989E-2,-2.6807366E-2,-9.883153E-2,1.7403087E-2,-1.2166468E-1,2.3419393E-2,5.817632E-2,-4.6721775E-2,-1.7355567E-1,-6.5529145E-2,1.0580557E-2,-7.683459E-2,8.1659034E-2,-5.0849445E-2,-5.9724994E-2,5.516956E-2,9.083405E-2,-2.6241248E-2,-1.1886115E-1,3.1036625E-2,-5.354876E-2,3.6258798E-2,1.1137911E-1,-1.9772708E-2,-3.3480432E-2,8.515503E-2,-1.7051958E-1,-1.6491665E-2,8.7591216E-2,-2.46649E-2,-4.236382E-2,-1.5604173E-1],"categories":[],"categories_nodes":[],"categories_segments":[],"categories_sizes":[],"default_left":[0,0,0,0,0,0,0,0,0,0,0,0,0,0,0,0,0,0,0,0,0,0,0,0,0,0,0,0,0,0,0,0,0,0,0,0,0,0,0,0,0,0,0,0,0,0,0,0,0,0,0,0,0,0,0,0,0,0,0,0,0,0,0,0,0,0,0,0,0,0,0,0,0,0,0,0,0,0,0,0,0,0,0,0,0,0,0,0,0,0,0],"id":8,"left_children":[1,3,5,7,9,11,13,15,17,19,21,23,25,27,29,31,33,35,37,39,41,-1,-1,43,45,47,49,51,53,55,57,59,61,63,65,67,-1,-1,-1,69,71,-1,73,75,77,79,81,83,85,87,-1,-1,-1,-1,-1,89,-1,-1,-1,-1,-1,-1,-1,-1,-1,-1,-1,-1,-1,-1,-1,-1,-1,-1,-1,-1,-1,-1,-1,-1,-1,-1,-1,-1,-1,-1,-1,-1,-1,-1,-1],"loss_changes":[4.6635876E0,6.272847E0,4.8829026E0,6.690036E0,5.4188285E0,5.2647877E0,3.5968926E0,4.010314E0,5.3137054E0,3.7588696E0,2.091107E0,5.697076E0,3.861333E0,3.1320174E0,3.1556697E0,2.4020314E0,3.8947468E0,3.8086147E0,7.999495E-1,4.1452785E0,3.4559107E0,0E0,0E0,5.6391506E0,6.1082735E0,4.6677785E0,4.6688294E0,1.902476E0,1.1714487E0,1.1403513E0,1.382843E0,2.3814695E0,3.5168376E0,2.623337E0,3.5438714E0,2.8019295E0,0E0,0E0,0E0,1.5830128E0,4.2015734E0,0E0,1.7279538E0,2.8921018E0,3.9570923E0,4.342068E0,5.353359E0,2.6652324E0,2.4045162E0,4.106659E0,0E0,0E0,0E0,0E0,0E0,7.717409E-1,0E0,0E0,0E0,0E0,0E0,0E0,0E0,0E0,0E0,0E0,0E0,0E0,0E0,0E0,0E0,0E0,0E0,0E0,0E0,0E0,0E0,0E0,0E0,0E0,0E0,0E0,0E0,0E0,0E0,0E0,0E0,0E0,0E0,0E0,0E0],"parents":[2147483647,0,0,1,1,2,2,3,3,4,4,5,5,6,6,7,7,8,8,9,9,10,10,11,11,12,12,13,13,14,14,15,15,16,16,17,17,18,18,19,19,20,20,23,23,24,24,25,25,26,26,27,27,28,28,29,29,30,30,31,31,32,32,33,33,34,34,35,35,39,39,40,40,42,42,43,43,44,44,45,45,46,46,47,47,48,48,49,49,55,55],"right_children":[2,4,6,8,10,12,14,16,18,20,22,24,26,28,30,32,34,36,38,40,42,-1,-1,44,46,48,50,52,54,56,58,60,62,64,66,68,-1,-1,-1,70,72,-1,74,76,78,80,82,84,86,88,-1,-1,-1,-1,-1,90,-1,-1,-1,-1,-1,-1,-1,-1,-1,-1,-1,-1,-1,-1,-1,-1,-1,-1,-1,-1,-1,-1,-1,-1,-1,-1,-1,-1,-1,-1,-1,-1,-1,-1,-1],"split_conditions":[4.1637695E-3,2.179416E-1,2.6359147E-1,2.8568909E-2,7.324576E-2,3.2164767E-2,4.4169256E-1,3.250785E-2,4.548559E-2,1.6720922E-3,3.2189342E-1,1.4891791E-1,5.676953E-4,3.2618755E-1,8.918031E-2,1.045426E-2,5.506511E-2,1.8064432E-2,7.9619825E-2,1.23969555E-1,1.1159413E-2,-1.5107019E-1,2.9750604E-3,3.5761754E-4,1.7341815E-1,2.8611328E-2,1.398468E-2,1.9341767E-1,3.3026233E-1,6.5343773E-1,3.0550177E-4,9.45446E-3,2.7812982E-1,4.702004E-2,4.224591E-2,1.7932689E-1,1.9482248E-2,-1.7369008E-2,7.527949E-2,6.6649365E-1,5.5622965E-2,1.2376153E-1,7.846829E-2,1.21201025E-2,9.895941E-3,4.1944772E-1,1.39574185E-2,1.21378966E-1,1.00228384E-1,5.2518913E-5,1.1037296E-1,3.690963E-2,-9.257493E-2,1.0177691E-1,-9.29865E-3,8.288923E-2,-1.1947128E-2,7.050158E-2,-3.804873E-2,8.416989E-2,-2.6807366E-2,-9.883153E-2,1.7403087E-2,-1.2166468E-1,2.3419393E-2,5.817632E-2,-4.6721775E-2,-1.7355567E-1,-6.5529145E-2,1.0580557E-2,-7.683459E-2,8.1659034E-2,-5.0849445E-2,-5.9724994E-2,5.516956E-2,9.083405E-2,-2.6241248E-2,-1.1886115E-1,3.1036625E-2,-5.354876E-2,3.6258798E-2,1.1137911E-1,-1.9772708E-2,-3.3480432E-2,8.515503E-2,-1.7051958E-1,-1.6491665E-2,8.7591216E-2,-2.46649E-2,-4.236382E-2,-1.5604173E-1],"split_indices":[452,46,357,370,225,377,276,342,84,238,320,317,274,89,88,84,258,424,434,247,471,0,0,93,46,261,200,454,0,109,230,322,102,355,69,344,0,0,0,119,265,0,2,57,435,248,142,141,241,471,0,0,0,0,0,283,0,0,0,0,0,0,0,0,0,0,0,0,0,0,0,0,0,0,0,0,0,0,0,0,0,0,0,0,0,0,0,0,0,0,0],"split_type":[0,0,0,0,0,0,0,0,0,0,0,0,0,0,0,0,0,0,0,0,0,0,0,0,0,0,0,0,0,0,0,0,0,0,0,0,0,0,0,0,0,0,0,0,0,0,0,0,0,0,0,0,0,0,0,0,0,0,0,0,0,0,0,0,0,0,0,0,0,0,0,0,0,0,0,0,0,0,0,0,0,0,0,0,0,0,0,0,0,0,0],"sum_hessian":[2.1865926E2,9.236333E1,1.2629593E2,6.3085896E1,2.9277431E1,1.1042862E2,1.5867306E1,4.623926E1,1.6846634E1,2.6539738E1,2.737694E0,7.2046455E1,3.8382164E1,6.618063E0,9.249243E0,2.5502113E1,2.0737148E1,1.456619E1,2.2804453E0,1.7637232E1,8.902504E0,1.4074721E0,1.3302219E0,1.4084217E1,5.7962242E1,1.3524927E1,2.4857237E1,3.170864E0,3.4471989E0,6.395475E0,2.8537679E0,1.2767655E1,1.2734458E1,3.7031991E0,1.7033949E1,1.28392105E1,1.7269785E0,1.0882442E0,1.1922013E0,7.686819E0,9.950414E0,5.6645226E0,3.2379813E0,6.8699985E0,7.214218E0,3.739104E1,2.0571201E1,9.026822E0,4.498105E0,2.1829983E1,3.0272543E0,1.1174965E0,2.0533676E0,2.338329E0,1.1088699E0,5.1923065E0,1.2031685E0,1.0175437E0,1.8362243E0,1.2996582E0,1.1467997E1,9.644064E0,3.0903943E0,2.0654407E0,1.6377585E0,1.3723518E1,3.3104303E0,6.392555E0,6.4466553E0,2.8831353E0,4.8036838E0,7.381697E0,2.5687163E0,1.5764722E0,1.6615092E0,3.6562352E0,3.2137632E0,5.2508717E0,1.9633467E0,5.521456E0,3.1869583E1,1.7144379E1,3.426823E0,7.5908914E0,1.435931E0,2.79662E0,1.701485E0,2.9006407E0,1.8929342E1,1.8194304E0,3.372876E0],"tree_param":{"num_deleted":"0","num_feature":"520","num_nodes":"91","size_leaf_vector":"1"}},{"base_weights":[5.760877E-3,1.0547344E-1,-3.38288E-2,6.4369686E-2,-3.4427467E-1,-1.8282015E-4,5.515679E-1,-4.2023253E-1,6.3102704E-1,-7.9287463E-1,4.571548E-2,7.386855E-1,-3.3967742E-1,2.5477466E-1,-5.4843724E-1,-1.7387297E-2,9.856668E-2,4.1426957E-2,-1.0979517E0,-7.916522E-2,2.9524997E-1,-2.3559948E-2,9.112483E-1,-8.524638E-2,4.015583E-2,7.1534127E-1,-5.184595E-1,-4.2154318E-1,-1.4798505E0,-1.3095912E-1,-6.5049767E-3,-5.5709448E-2,2.4577656E-3,6.804266E-3,7.587468E-2,1.1372501E-1,-9.414807E-3,-5.4362632E-2,1.1647119E-1,-9.125586E-2,2.4484735E-2,-5.2642733E-2,5.858503E-2,-1.8789074E-1,-1.4638262E-2],"categories":[],"categories_nodes":[],"categories_segments":[],"categories_sizes":[],"default_left":[0,0,0,0,0,0,0,0,0,0,0,0,0,0,0,0,0,0,0,0,0,0,0,0,0,0,0,0,0,0,0,0,0,0,0,0,0,0,0,0,0,0,0,0,0],"id":9,"left_children":[1,-1,3,5,7,9,11,13,15,17,19,21,23,25,27,-1,-1,-1,29,31,33,-1,35,-1,-1,37,39,41,43,-1,-1,-1,-1,-1,-1,-1,-1,-1,-1,-1,-1,-1,-1,-1,-1],"loss_changes":[9.045361E0,0E0,6.425E0,5.044718E0,4.015826E0,5.225772E0,3.380587E0,4.256442E0,1.3296943E0,3.3499527E0,4.2543645E0,2.8753204E0,1.8404222E0,3.3180957E0,4.138652E0,0E0,0E0,0E0,1.3465118E0,4.539367E0,4.739636E0,0E0,3.2085333E0,0E0,0E0,3.8051322E0,1.3271592E0,4.203197E0,2.0839653E0,0E0,0E0,0E0,0E0,0E0,0E0,0E0,0E0,0E0,0E0,0E0,0E0,0E0,0E0,0E0,0E0],"parents":[2147483647,0,0,2,2,3,3,4,4,5,5,6,6,7,7,8,8,9,9,10,10,11,11,12,12,13,13,14,14,18,18,19,19,20,20,22,22,25,25,26,26,27,27,28,28],"right_children":[2,-1,4,6,8,10,12,14,16,18,20,22,24,26,28,-1,-1,-1,30,32,34,-1,36,-1,-1,38,40,42,44,-1,-1,-1,-1,-1,-1,-1,-1,-1,-1,-1,-1,-1,-1,-1,-1],"split_conditions":[0E0,1.0547344E-1,5.5090122E-2,1.3366447E-1,4.8731486E-3,9.400298E-2,6.462979E-1,3.7114047E-3,5.6875693E-3,1.1565444E-2,2.533656E-3,3.9809993E-3,1.7154263E-1,7.583468E-2,2.7459811E-2,-1.7387297E-2,9.856668E-2,4.1426957E-2,3.0168334E-2,1.845475E-3,1.9536726E-3,-2.3559948E-2,4.7066793E-1,-8.524638E-2,4.015583E-2,9.315676E-3,1.7256552E-2,1.6460724E-2,1.4031882E-2,-1.3095912E-1,-6.5049767E-3,-5.5709448E-2,2.4577656E-3,6.804266E-3,7.587468E-2,1.1372501E-1,-9.414807E-3,-5.4362632E-2,1.1647119E-1,-9.125586E-2,2.4484735E-2,-5.2642733E-2,5.858503E-2,-1.8789074E-1,-1.4638262E-2],"split_indices":[515,0,146,4,421,356,185,244,53,408,130,107,488,258,239,0,0,0,370,490,157,0,89,0,0,255,37,433,14,0,0,0,0,0,0,0,0,0,0,0,0,0,0,0,0],"split_type":[0,0,0,0,0,0,0,0,0,0,0,0,0,0,0,0,0,0,0,0,0,0,0,0,0,0,0,0,0,0,0,0,0,0,0,0,0,0,0,0,0,0,0,0,0],"sum_hessian":[2.1595161E2,6.9213343E0,2.0903029E2,1.5940184E2,4.9628437E1,1.4163518E2,1.7766668E1,4.657058E1,3.0578573E0,6.8613234E0,1.3477385E2,1.482527E1,2.941399E0,7.275784E0,3.9294796E1,1.0911264E0,1.9667307E0,1.3120035E0,5.5493197E0,9.027704E1,4.4496815E1,2.17575E0,1.264952E1,1.6499248E0,1.2914742E0,4.6067224E0,2.6690617E0,3.5861656E1,3.433141E0,4.383312E0,1.1660075E0,1.5321773E1,7.495527E1,3.0629135E1,1.3867679E1,1.0220843E1,2.4286764E0,1.1566036E0,3.450119E0,1.6312871E0,1.0377746E0,3.2912434E1,2.9492218E0,2.3275535E0,1.1055875E0],"tree_param":{"num_deleted":"0","num_feature":"520","num_nodes":"45","size_leaf_vector":"1"}},{"base_weights":[-7.6778233E-3,1.03246234E-1,-4.4674322E-2,-4.3064684E-1,1.1931135E-2,-6.7924297E-1,2.0299491E-1,-6.3758746E-2,3.525916E-1,-1.8567793E-1,-1.2396319E0,1.0320946E-1,-3.5209996E-1,-1.6793051E-1,2.4814492E-1,-8.12574E-2,6.636317E-1,-7.5352234E-1,2.6251495E-1,-4.297578E-3,-1.5325063E0,-7.4887246E-2,1.8438506E-1,4.4077593E-1,-2.4681568E-1,4.1818187E-1,-2.7731094E-1,-5.362246E-1,4.4542006E-1,1.1662687E0,2.8051832E-1,2.3523647E-2,-1.0389209E-1,-2.827451E-2,8.411605E-2,-1.7676897E-1,-1.0951943E-2,-1.103825E-2,3.910699E-2,9.03532E-2,-1.8541655E-2,-3.6208972E-2,1.853317E-2,1.0556771E-1,2.2860745E-2,-7.730465E-2,3.1028444E-2,-9.207415E-2,6.1080195E-2,7.6847814E-2,-3.564638E-2,1.2563255E-1,2.7084215E-2,8.684949E-2,8.374167E-4],"categories":[],"categories_nodes":[],"categories_segments":[],"categories_sizes":[],"default_left":[0,0,0,0,0,0,0,0,0,0,0,0,0,0,0,0,0,0,0,0,0,0,0,0,0,0,0,0,0,0,0,0,0,0,0,0,0,0,0,0,0,0,0,0,0,0,0,0,0,0,0,0,0,0,0],"id":10,"left_children":[1,-1,3,5,7,9,11,13,15,17,19,-1,21,23,25,27,29,31,33,-1,35,-1,37,39,41,43,45,47,49,51,53,-1,-1,-1,-1,-1,-1,-1,-1,-1,-1,-1,-1,-1,-1,-1,-1,-1,-1,-1,-1,-1,-1,-1,-1],"loss_changes":[8.53901E0,0E0,4.682354E0,4.4551287E0,4.8614907E0,5.278002E0,4.272012E0,5.0583797E0,4.678542E0,3.1920092E0,3.1408863E0,0E0,1.3796198E0,5.6951904E0,3.6058958E0,3.881349E0,3.537547E0,1.7817831E0,2.5463688E0,0E0,2.2567844E0,0E0,2.4312839E-1,4.1392527E0,5.2296567E0,3.373312E0,3.196748E0,4.359634E0,2.2405705E0,3.3419418E-1,2.0257902E0,0E0,0E0,0E0,0E0,0E0,0E0,0E0,0E0,0E0,0E0,0E0,0E0,0E0,0E0,0E0,0E0,0E0,0E0,0E0,0E0,0E0,0E0,0E0,0E0],"parents":[2147483647,0,0,2,2,3,3,4,4,5,5,6,6,7,7,8,8,9,9,10,10,12,12,13,13,14,14,15,15,16,16,17,17,18,18,20,20,22,22,23,23,24,24,25,25,26,26,27,27,28,28,29,29,30,30],"right_children":[2,-1,4,6,8,10,12,14,16,18,20,-1,22,24,26,28,30,32,34,-1,36,-1,38,40,42,44,46,48,50,52,54,-1,-1,-1,-1,-1,-1,-1,-1,-1,-1,-1,-1,-1,-1,-1,-1,-1,-1,-1,-1,-1,-1,-1,-1],"split_conditions":[0E0,1.03246234E-1,1.1832041E-1,4.6896157E-3,5.4244637E-3,1.0174472E0,1.1559833E-1,2.2928203E3,3.1399727E-2,4.0211648E-2,1.7784053E-2,1.0320946E-1,6.7334846E-2,3.8918566E-3,3.0535433E-2,4.5698527E-3,2.9087727E-4,2.682956E-3,6.1168477E-2,-4.297578E-3,1.10449575E-1,-7.4887246E-2,1.1344235E-3,2.8144294E-1,2.4883486E-2,2.448918E3,4.4969073E-3,1.727732E-2,1.2321826E-1,5.867798E-2,1.8340679E-2,2.3523647E-2,-1.0389209E-1,-2.827451E-2,8.411605E-2,-1.7676897E-1,-1.0951943E-2,-1.103825E-2,3.910699E-2,9.03532E-2,-1.8541655E-2,-3.6208972E-2,1.853317E-2,1.0556771E-1,2.2860745E-2,-7.730465E-2,3.1028444E-2,-9.207415E-2,6.1080195E-2,7.6847814E-2,-3.564638E-2,1.2563255E-1,2.7084215E-2,8.684949E-2,8.374167E-4],"split_indices":[515,0,240,271,97,497,293,512,342,118,246,0,222,480,57,478,508,94,26,0,468,0,136,133,44,512,137,495,498,118,57,0,0,0,0,0,0,0,0,0,0,0,0,0,0,0,0,0,0,0,0,0,0,0,0],"split_type":[0,0,0,0,0,0,0,0,0,0,0,0,0,0,0,0,0,0,0,0,0,0,0,0,0,0,0,0,0,0,0,0,0,0,0,0,0,0,0,0,0,0,0,0,0,0,0,0,0,0,0,0,0,0,0],"sum_hessian":[2.1970024E2,6.621884E0,2.1307835E2,2.6407452E1,1.866709E2,1.8914698E1,7.4927545E0,1.5340038E2,3.327053E1,1.0764847E1,8.14985E0,2.660168E0,4.832587E0,1.1533993E2,3.806044E1,1.4201108E1,1.9069422E1,4.4480634E0,6.3167834E0,1.8279138E0,6.3219366E0,2.550446E0,2.2821407E0,1.270626E1,1.0263367E2,2.890951E1,9.150931E0,7.609532E0,6.5915756E0,7.363919E0,1.17055025E1,1.0356909E0,3.4123726E0,3.51549E0,2.8012931E0,5.2173953E0,1.104541E0,1.1326823E0,1.1494583E0,7.0519633E0,5.6542964E0,8.1149414E1,2.1484253E1,5.579217E0,2.3330294E1,4.7922516E0,4.35868E0,5.8467946E0,1.762737E0,4.7283187E0,1.8632569E0,6.3247643E0,1.0391548E0,3.010314E0,8.6951885E0],"tree_param":{"num_deleted":"0","num_feature":"520","num_nodes":"55","size_leaf_vector":"1"}},{"base_weights":[2.5688674E-2,-1.021481E0,4.52075E-2,-1.0186183E-2,-1.3495892E-1,1.08844854E-1,-2.4559681E-1,1.4406154E-1,-6.9306475E-1,-6.492755E-1,6.382404E-2,-5.6124234E-1,1.7686614E-1,1.4233201E-2,-9.220539E-1,5.6929135E-1,-8.995571E-1,-4.5701638E-1,4.4221616E-1,8.294403E-2,-1.025444E0,-1.2929487E-2,3.0826193E-1,-1.3055079E-1,-1.6956044E-2,8.5982986E-2,-1.411109E-4,2.0848797E-1,-1.1502922E0,-4.801833E-2,-1.3290648E-1,7.9225624E-1,-2.7310354E-1,-1.5926272E-1,-7.717171E-3,-2.8192777E-2,2.1879243E-2,3.6383744E-2,-5.8696337E-2,8.088486E-2,-4.703526E-2,-2.4206242E-2,-1.4547682E-1,4.987189E-2,-6.123134E-2,1.0101583E-1,-1.7027164E-2,1.9010035E-2,-7.105188E-2],"categories":[],"categories_nodes":[],"categories_segments":[],"categories_sizes":[],"default_left":[0,0,0,0,0,0,0,0,0,0,0,0,0,0,0,0,0,0,0,0,0,0,0,0,0,0,0,0,0,0,0,0,0,0,0,0,0,0,0,0,0,0,0,0,0,0,0,0,0],"id":11,"left_children":[1,3,5,-1,-1,7,9,11,13,15,17,19,21,-1,23,25,27,29,31,-1,33,35,37,-1,-1,-1,-1,39,41,43,-1,45,47,-1,-1,-1,-1,-1,-1,-1,-1,-1,-1,-1,-1,-1,-1,-1,-1],"loss_changes":[4.4579186E0,1.0670528E0,3.9657676E0,0E0,0E0,5.0512285E0,4.853218E0,4.004382E0,1.5751281E0,5.637385E0,4.6794057E0,5.847765E0,4.044989E0,0E0,1.5265942E0,5.775527E-1,4.2208223E0,3.5211666E0,3.6383603E0,0E0,3.2390838E0,4.2534633E0,4.9794273E0,0E0,0E0,0E0,0E0,1.8030794E0,2.921585E0,2.7364483E0,0E0,2.1503625E0,1.1955483E0,0E0,0E0,0E0,0E0,0E0,0E0,0E0,0E0,0E0,0E0,0E0,0E0,0E0,0E0,0E0,0E0],"parents":[2147483647,0,0,1,1,2,2,5,5,6,6,7,7,8,8,9,9,10,10,11,11,12,12,14,14,15,15,16,16,17,17,18,18,20,20,21,21,22,22,27,27,28,28,29,29,31,31,32,32],"right_children":[2,4,6,-1,-1,8,10,12,14,16,18,20,22,-1,24,26,28,30,32,-1,34,36,38,-1,-1,-1,-1,40,42,44,-1,46,48,-1,-1,-1,-1,-1,-1,-1,-1,-1,-1,-1,-1,-1,-1,-1,-1],"split_conditions":[4.995513E-3,5.5289473E-3,2.6417593E-3,-1.0186183E-2,-1.3495892E-1,3.5018876E-2,1.5399137E-3,2.666735E-2,7.327632E-4,3.2182404E-1,5.324543E-3,9.041513E-4,1.6500972E-2,1.4233201E-2,5.701825E-1,8.399943E-2,7.565971E-1,7.4850386E-3,5.558034E-2,8.294403E-2,5.5805445E-3,1.6698848E-2,6.1431594E-2,-1.3055079E-1,-1.6956044E-2,8.5982986E-2,-1.411109E-4,3.2111768E-2,2.9796305E-1,8.86239E-7,-1.3290648E-1,7.3723877E-6,6.419351E-2,-1.5926272E-1,-7.717171E-3,-2.8192777E-2,2.1879243E-2,3.6383744E-2,-5.8696337E-2,8.088486E-2,-4.703526E-2,-2.4206242E-2,-1.4547682E-1,4.987189E-2,-6.123134E-2,1.0101583E-1,-1.7027164E-2,1.9010035E-2,-7.105188E-2],"split_indices":[180,156,366,0,0,207,47,450,75,305,309,257,44,0,166,34,56,466,168,0,177,388,345,0,0,0,0,69,32,508,0,501,426,0,0,0,0,0,0,0,0,0,0,0,0,0,0,0,0],"split_type":[0,0,0,0,0,0,0,0,0,0,0,0,0,0,0,0,0,0,0,0,0,0,0,0,0,0,0,0,0,0,0,0,0,0,0,0,0,0,0,0,0,0,0,0,0,0,0,0,0],"sum_hessian":[2.1484363E2,2.9920008E0,2.1185162E2,1.131393E0,1.8606079E0,1.7432861E2,3.7523006E1,1.677807E2,6.547909E0,1.5805012E1,2.1717995E1,6.7409387E0,1.6103976E2,1.4901146E0,5.057794E0,2.4758816E0,1.3329131E1,9.051378E0,1.2666617E1,1.4900751E0,5.2508636E0,6.624838E1,9.479138E1,2.863638E0,2.1941562E0,1.304936E0,1.1709454E0,2.4907095E0,1.0838421E1,6.879771E0,2.171607E0,8.432591E0,4.234025E0,2.8604565E0,2.3904073E0,3.0557976E1,3.5690407E1,8.980959E1,4.9817886E0,1.220126E0,1.2705835E0,3.171897E0,7.6665244E0,3.5532696E0,3.3265018E0,6.8356233E0,1.5969684E0,2.3309987E0,1.9030265E0],"tree_param":{"num_deleted":"0","num_feature":"520","num_nodes":"49","size_leaf_vector":"1"}},{"base_weights":[-3.2724705E-4,-1.5929078E-1,1.7501688E-1,-9.3527295E-2,-8.7823725E-1,2.2178403E-1,-9.110652E-1,-1.0054963E-2,-6.8722004E-1,-1.3090426E0,1.2648107E-1,6.4394675E-2,5.1925623E-1,-1.3390593E-1,6.7496556E-3,1.6992055E-1,-2.8282732E-1,-1.0480032E0,1.5154552E-1,-1.7215564E0,-9.969831E-3,8.850681E-2,-6.540906E-2,-2.0407E-1,2.4885139E-1,2.2850733E-1,9.1378444E-1,5.386456E-1,-5.8160424E-3,3.54703E-1,-4.9470395E-1,3.1691838E-2,-1.5202105E0,-5.306385E-2,8.7327026E-2,-5.3171165E-2,-1.9347034E-1,2.851511E-1,-5.148591E-1,5.702147E-1,-4.5284566E-2,8.192819E-1,-6.058039E-2,1.0812284E0,-5.478735E-2,-1.854337E-3,9.087533E-2,-1.452511E-2,7.7398665E-2,8.763471E-2,-3.413787E-2,-3.0338595E-2,-1.5166692E-1,7.545007E-2,-5.267326E-2,-8.899966E-3,-1.8128741E-1,-5.533993E-2,5.7849802E-2,-2.0806147E-2,-1.3587789E-1,7.782394E-2,-1.9727565E-2,-3.7641045E-2,5.110333E-2,1.0357609E-1,-1.996181E-2,-5.2773595E-2,3.77388E-2,1.2984611E-1,2.6942467E-2],"categories":[],"categories_nodes":[],"categories_segments":[],"categories_sizes":[],"default_left":[0,0,0,0,0,0,0,0,0,0,0,0,0,0,0,0,0,0,0,0,0,0,0,0,0,0,0,0,0,0,0,0,0,0,0,0,0,0,0,0,0,0,0,0,0,0,0,0,0,0,0,0,0,0,0,0,0,0,0,0,0,0,0,0,0,0,0,0,0,0,0],"id":12,"left_children":[1,3,5,7,9,11,13,15,17,19,21,23,25,-1,-1,27,29,31,33,35,-1,-1,-1,37,39,41,43,45,47,49,51,53,55,-1,-1,-1,-1,57,59,61,63,65,67,69,-1,-1,-1,-1,-1,-1,-1,-1,-1,-1,-1,-1,-1,-1,-1,-1,-1,-1,-1,-1,-1,-1,-1,-1,-1,-1,-1],"loss_changes":[6.0990806E0,5.3440866E0,5.486926E0,5.2593975E0,4.277087E0,4.6744947E0,1.9713514E0,4.671741E0,4.1183586E0,3.188963E0,2.8068483E0,3.36386E0,3.7661285E0,0E0,0E0,3.7205222E0,5.2834277E0,4.7771826E0,2.8311162E0,2.2960567E-1,0E0,0E0,0E0,4.3731365E0,3.8169198E0,3.6845632E0,4.1090927E0,3.837605E0,4.4443946E0,3.9356775E0,5.170834E0,1.9319913E0,2.5502014E0,0E0,0E0,0E0,0E0,3.1347225E0,4.21061E0,3.2253294E0,4.2205133E0,1.7643776E0,3.3135302E0,1.982975E0,0E0,0E0,0E0,0E0,0E0,0E0,0E0,0E0,0E0,0E0,0E0,0E0,0E0,0E0,0E0,0E0,0E0,0E0,0E0,0E0,0E0,0E0,0E0,0E0,0E0,0E0,0E0],"parents":[2147483647,0,0,1,1,2,2,3,3,4,4,5,5,6,6,7,7,8,8,9,9,10,10,11,11,12,12,15,15,16,16,17,17,18,18,19,19,23,23,24,24,25,25,26,26,27,27,28,28,29,29,30,30,31,31,32,32,37,37,38,38,39,39,40,40,41,41,42,42,43,43],"right_children":[2,4,6,8,10,12,14,16,18,20,22,24,26,-1,-1,28,30,32,34,36,-1,-1,-1,38,40,42,44,46,48,50,52,54,56,-1,-1,-1,-1,58,60,62,64,66,68,70,-1,-1,-1,-1,-1,-1,-1,-1,-1,-1,-1,-1,-1,-1,-1,-1,-1,-1,-1,-1,-1,-1,-1,-1,-1,-1,-1],"split_conditions":[1.8692698E-3,5.441388E-3,2.3437466E-4,3.4957446E-2,1.947571E-1,1.6930674E-1,1.0913927E-2,7.1725285E-1,2.1908171E-2,1.23738356E-1,1.0201883E0,4.8451754E-3,2.4974516E-2,-1.3390593E-1,6.7496556E-3,1.3674578E-2,2.387764E-2,4.1150298E-2,1.4858496E-1,6.5669276E-2,-9.969831E-3,8.850681E-2,-6.540906E-2,2.5625692E-3,3.8206538E-3,4.8708883E-3,6.6421434E-2,1.822034E-1,1.9805513E-2,1.9765148E-1,3.4457963E-4,1.6327716E-1,5.5486254E-2,-5.306385E-2,8.7327026E-2,-5.3171165E-2,-1.9347034E-1,1.8069959E-1,9.387389E-2,3.4125995E-2,4.4230726E-3,3.832385E-2,5.8130495E-4,4.03279E-3,-5.478735E-2,-1.854337E-3,9.087533E-2,-1.452511E-2,7.7398665E-2,8.763471E-2,-3.413787E-2,-3.0338595E-2,-1.5166692E-1,7.545007E-2,-5.267326E-2,-8.899966E-3,-1.8128741E-1,-5.533993E-2,5.7849802E-2,-2.0806147E-2,-1.3587789E-1,7.782394E-2,-1.9727565E-2,-3.7641045E-2,5.110333E-2,1.0357609E-1,-1.996181E-2,-5.2773595E-2,3.77388E-2,1.2984611E-1,2.6942467E-2],"split_indices":[157,472,223,261,285,423,100,172,75,341,55,452,177,0,0,349,206,175,16,77,0,0,0,329,83,29,146,215,485,240,169,36,258,0,0,0,0,148,88,292,424,342,274,73,0,0,0,0,0,0,0,0,0,0,0,0,0,0,0,0,0,0,0,0,0,0,0,0,0,0,0],"split_type":[0,0,0,0,0,0,0,0,0,0,0,0,0,0,0,0,0,0,0,0,0,0,0,0,0,0,0,0,0,0,0,0,0,0,0,0,0,0,0,0,0,0,0,0,0,0,0,0,0,0,0,0,0,0,0,0,0,0,0,0,0,0,0,0,0,0,0,0,0,0,0],"sum_hessian":[2.1681409E2,1.1376685E2,1.0304723E2,1.05267876E2,8.498976E0,9.955611E1,3.4911325E0,9.318337E1,1.208451E1,5.73641E0,2.7625656E0,6.590366E1,3.3652443E1,2.1725347E0,1.3185978E0,5.6368458E1,3.681491E1,8.275472E0,3.8090374E0,3.9615567E0,1.7748537E0,1.3331206E0,1.429445E0,2.6796614E1,3.9107048E1,2.028358E1,1.3368862E1,1.7527573E1,3.8840885E1,9.014988E0,2.7799925E1,2.801886E0,5.473586E0,2.094269E0,1.7147683E0,1.1327593E0,2.8287973E0,1.0442034E1,1.635458E1,1.8240007E1,2.086704E1,6.061789E0,1.4221791E1,1.2228292E1,1.1405697E0,7.3748274E0,1.0152745E1,3.3639587E1,5.201298E0,5.0051517E0,4.0098357E0,2.4508629E1,3.2912965E0,1.0681627E0,1.7337235E0,1.1506536E0,4.3229322E0,2.4764493E0,7.9655843E0,1.2908413E1,3.446167E0,1.4339378E1,3.900628E0,1.3283789E1,7.583252E0,4.9859166E0,1.0758727E0,6.7824163E0,7.4393754E0,9.173937E0,3.054356E0],"tree_param":{"num_deleted":"0","num_feature":"520","num_nodes":"71","size_leaf_vector":"1"}},{"base_weights":[-7.569286E-3,1.0087835E-1,-4.3255325E-2,-1.3618827E-1,2.718933E-1,-2.9597944E-3,-3.571558E-1,6.037421E-1,-1.7460644E-1,6.537703E-2,-6.189958E-1,3.3870205E-1,-5.092589E-1,-3.8422683E-1,7.7116257E-1,-8.828426E-1,1.0043244E-1,-4.8919324E-2,5.879915E-1,2.6853803E-1,-9.489964E-1,6.876034E-1,-3.5454592E-1,-3.745204E-1,-1.108585E0,4.3216493E-2,-8.216822E-2,9.8160493E-1,-2.0497652E-2,2.3467425E-2,-1.3453287E0,-1.9065998E-1,1.07783794E-1,-1.2630525E-2,5.5496164E-2,8.547696E-2,-3.1913437E-2,-2.4803927E-2,7.28226E-2,-1.3635926E-1,8.438409E-3,9.623753E-2,-4.989147E-2,2.7209843E-2,-6.227376E-2,-2.2613304E-2,-1.23923555E-1,-1.3953643E-1,1.4876946E-2,1.1396428E-1,-1.5147357E-2,9.533013E-2,-6.240205E-2,-1.5767736E-2,-1.6611207E-1,4.551018E-2,-5.55044E-2],"categories":[],"categories_nodes":[],"categories_segments":[],"categories_sizes":[],"default_left":[0,0,0,0,0,0,0,0,0,0,0,0,0,0,0,0,0,0,0,0,0,0,0,0,0,0,0,0,0,0,0,0,0,0,0,0,0,0,0,0,0,0,0,0,0,0,0,0,0,0,0,0,0,0,0,0,0],"id":13,"left_children":[1,-1,3,5,7,9,11,13,15,17,19,21,23,25,27,29,31,33,35,37,39,41,43,45,47,-1,-1,49,51,-1,53,55,-1,-1,-1,-1,-1,-1,-1,-1,-1,-1,-1,-1,-1,-1,-1,-1,-1,-1,-1,-1,-1,-1,-1,-1,-1],"loss_changes":[7.9180307E0,0E0,6.2079945E0,4.8088493E0,7.264581E0,4.3739004E0,6.676242E0,4.917989E0,4.252484E0,5.617545E0,3.2932816E0,3.0550425E0,3.689045E0,2.0394478E0,4.0560036E0,3.4587379E0,4.8415017E0,3.7009642E0,4.3546352E0,1.0334204E0,3.449523E0,3.1117191E0,9.3428695E-1,5.2380056E0,3.3874912E0,0E0,0E0,3.6032944E0,4.160427E0,0E0,1.4069576E0,3.4068384E0,0E0,0E0,0E0,0E0,0E0,0E0,0E0,0E0,0E0,0E0,0E0,0E0,0E0,0E0,0E0,0E0,0E0,0E0,0E0,0E0,0E0,0E0,0E0,0E0,0E0],"parents":[2147483647,0,0,2,2,3,3,4,4,5,5,6,6,7,7,8,8,9,9,10,10,11,11,12,12,13,13,14,14,15,15,16,16,17,17,18,18,19,19,20,20,21,21,22,22,23,23,24,24,27,27,28,28,30,30,31,31],"right_children":[2,-1,4,6,8,10,12,14,16,18,20,22,24,26,28,30,32,34,36,38,40,42,44,46,48,-1,-1,50,52,-1,54,56,-1,-1,-1,-1,-1,-1,-1,-1,-1,-1,-1,-1,-1,-1,-1,-1,-1,-1,-1,-1,-1,-1,-1,-1,-1],"split_conditions":[0E0,1.0087835E-1,8.358081E-1,1.0830428E-1,3.3091572E-1,1.1381055E-1,3.371152E-1,1.5129755E-1,1.268978E-1,1.5150958E-1,4.443777E-1,3.6854256E-2,4.553363E-3,1.4542203E-2,8.41329E-2,2.0340921E-2,1.8369254E-1,1.4814632E-1,1.03695974E-1,8.151535E-2,7.1430393E-3,3.7267074E-1,1.734762E-1,2.3450348E-1,3.6114715E-2,4.3216493E-2,-8.216822E-2,8.060542E-2,1.4146809E-2,2.3467425E-2,1.1732384E-3,5.54055E-2,1.07783794E-1,-1.2630525E-2,5.5496164E-2,8.547696E-2,-3.1913437E-2,-2.4803927E-2,7.28226E-2,-1.3635926E-1,8.438409E-3,9.623753E-2,-4.989147E-2,2.7209843E-2,-6.227376E-2,-2.2613304E-2,-1.23923555E-1,-1.3953643E-1,1.4876946E-2,1.1396428E-1,-1.5147357E-2,9.533013E-2,-6.240205E-2,-1.5767736E-2,-1.6611207E-1,4.551018E-2,-5.55044E-2],"split_indices":[515,0,56,141,32,88,464,454,291,291,307,279,230,401,275,292,344,438,482,7,217,128,17,99,448,0,0,486,345,0,157,401,0,0,0,0,0,0,0,0,0,0,0,0,0,0,0,0,0,0,0,0,0,0,0,0,0],"split_type":[0,0,0,0,0,0,0,0,0,0,0,0,0,0,0,0,0,0,0,0,0,0,0,0,0,0,0,0,0,0,0,0,0,0,0,0,0,0,0,0,0,0,0,0,0,0,0,0,0,0,0,0,0,0,0,0,0],"sum_hessian":[2.1610727E2,6.4055767E0,2.0970169E2,1.623846E2,4.7317097E1,1.0193692E2,6.0447678E1,2.6941439E1,2.037566E1,9.256281E1,9.374111E0,1.0622756E1,4.982492E1,3.7162724E0,2.3225166E1,5.081279E0,1.529438E1,7.669576E1,1.5867051E1,2.591241E0,6.78287E0,7.0717783E0,3.5509782E0,4.2006138E1,7.8187814E0,1.3007915E0,2.4154809E0,1.8158316E1,5.06685E0,1.6315365E0,3.4497423E0,1.2404874E1,2.8895063E0,6.868481E1,8.010954E0,1.230575E1,3.5613008E0,1.4369159E0,1.154325E0,4.6126943E0,2.1701756E0,5.8954315E0,1.1763463E0,1.0598994E0,2.4910789E0,3.6930313E1,5.075826E0,6.2772865E0,1.5414945E0,1.593058E1,2.2277365E0,1.7169495E0,3.3499007E0,1.0395273E0,2.4102151E0,4.3849316E0,8.019943E0],"tree_param":{"num_deleted":"0","num_feature":"520","num_nodes":"57","size_leaf_vector":"1"}},{"base_weights":[-3.9762206E-2,9.644024E-2,-6.912923E-2,-1.6995215E-1,1.7888689E-1,-2.6161006E-1,2.1133617E-1,5.188145E-1,-9.096266E-2,-1.22975245E-1,-7.0965075E-1,5.3798646E-1,-2.6135036E-1,-5.1184326E-2,7.853816E-1,-7.526185E-1,1.5021029E-1,-2.8161418E-1,2.3971024E-1,-1.1595491E0,-4.1086867E-1,-3.8631987E-2,9.36944E-1,4.788134E-1,-4.7760755E-1,-3.870864E-1,7.176329E-2,-4.8492324E-2,9.4655675E-1,4.878182E-2,-1.0750934E0,-2.8234017E-1,5.7472926E-1,-9.588479E-3,-7.872218E-2,-1.183565E-2,8.133657E-2,1.4134896E-2,-1.3941729E-1,-7.198128E-2,8.632263E-3,-3.464308E-2,6.397111E-2,1.0970474E-2,1.12229824E-1,8.385045E-2,-1.32196415E-2,5.638587E-2,-7.211848E-2,-7.848994E-2,5.817178E-2,1.0737957E-1,-7.337445E-3,-3.8581494E-2,4.690462E-2,-1.3893732E-1,-2.3321522E-2,5.202291E-3,-1.03543304E-1,8.168294E-2,-4.0722314E-2],"categories":[],"categories_nodes":[],"categories_segments":[],"categories_sizes":[],"default_left":[0,0,0,0,0,0,0,0,0,0,0,0,0,0,0,0,0,0,0,0,0,0,0,0,0,0,0,0,0,0,0,0,0,0,0,0,0,0,0,0,0,0,0,0,0,0,0,0,0,0,0,0,0,0,0,0,0,0,0,0,0],"id":14,"left_children":[1,-1,3,5,7,9,11,13,15,17,19,21,23,25,27,29,31,33,35,37,39,41,43,45,47,49,-1,-1,51,53,55,57,59,-1,-1,-1,-1,-1,-1,-1,-1,-1,-1,-1,-1,-1,-1,-1,-1,-1,-1,-1,-1,-1,-1,-1,-1,-1,-1,-1,-1],"loss_changes":[6.3994856E0,0E0,5.2711153E0,5.280713E0,5.648283E0,7.427862E0,4.700182E0,4.168644E0,5.680579E0,5.4533625E0,3.3385744E0,4.1286454E0,2.2680283E0,2.756111E0,4.26194E0,2.5040736E0,5.010632E0,6.0831857E0,6.0582466E0,3.486557E0,2.9197083E0,1.9411135E0,1.4951897E0,8.537239E-1,3.0348706E0,3.28095E0,0E0,0E0,2.2618265E0,8.5284275E-1,1.4772692E0,3.515854E0,3.5788174E0,0E0,0E0,0E0,0E0,0E0,0E0,0E0,0E0,0E0,0E0,0E0,0E0,0E0,0E0,0E0,0E0,0E0,0E0,0E0,0E0,0E0,0E0,0E0,0E0,0E0,0E0,0E0,0E0],"parents":[2147483647,0,0,2,2,3,3,4,4,5,5,6,6,7,7,8,8,9,9,10,10,11,11,12,12,13,13,14,14,15,15,16,16,17,17,18,18,19,19,20,20,21,21,22,22,23,23,24,24,25,25,28,28,29,29,30,30,31,31,32,32],"right_children":[2,-1,4,6,8,10,12,14,16,18,20,22,24,26,28,30,32,34,36,38,40,42,44,46,48,50,-1,-1,52,54,56,58,60,-1,-1,-1,-1,-1,-1,-1,-1,-1,-1,-1,-1,-1,-1,-1,-1,-1,-1,-1,-1,-1,-1,-1,-1,-1,-1,-1,-1],"split_conditions":[0E0,9.644024E-2,1.828133E-3,1.1595615E0,5.532625E-2,5.797574E-2,1.2919682E-1,1.9182928E-1,4.9903914E-3,4.327194E-1,5.527589E-2,5.015932E-1,8.694554E-5,9.3352064E-2,3.0552661E0,3.3757273E-2,2.3334057E-3,4.8052573E-1,1.331484E-2,1.8708957E-2,4.940386E-1,6.1855413E-2,2.6816617E-5,2.0962033E-1,3.0937979E-2,7.2337046E-2,7.176329E-2,-4.8492324E-2,8.673773E-3,3.3747458E-1,6.1939806E-2,1.0424714E0,9.041469E-2,-9.588479E-3,-7.872218E-2,-1.183565E-2,8.133657E-2,1.4134896E-2,-1.3941729E-1,-7.198128E-2,8.632263E-3,-3.464308E-2,6.397111E-2,1.0970474E-2,1.12229824E-1,8.385045E-2,-1.32196415E-2,5.638587E-2,-7.211848E-2,-7.848994E-2,5.817178E-2,1.0737957E-1,-7.337445E-3,-3.8581494E-2,4.690462E-2,-1.3893732E-1,-2.3321522E-2,5.202291E-3,-1.03543304E-1,8.168294E-2,-4.0722314E-2],"split_indices":[515,0,449,328,231,361,175,326,107,199,486,117,37,481,441,225,415,390,177,292,346,258,297,41,264,486,0,0,132,42,486,55,6,0,0,0,0,0,0,0,0,0,0,0,0,0,0,0,0,0,0,0,0,0,0,0,0,0,0,0,0],"split_type":[0,0,0,0,0,0,0,0,0,0,0,0,0,0,0,0,0,0,0,0,0,0,0,0,0,0,0,0,0,0,0,0,0,0,0,0,0,0,0,0,0,0,0,0,0,0,0,0,0,0,0,0,0,0,0,0,0,0,0,0,0],"sum_hessian":[2.137495E2,5.168831E0,2.0858066E2,1.4851959E2,6.0061073E1,1.1998924E2,2.8530344E1,2.617102E1,3.3890057E1,9.26084E1,2.7380846E1,1.678968E1,1.1740664E1,8.596712E0,1.7574308E1,8.486569E0,2.5403484E1,6.458319E1,2.802521E1,9.777388E0,1.7603458E1,7.235413E0,9.554267E0,2.3801725E0,9.360492E0,6.328333E0,2.2683797E0,1.7525867E0,1.5821721E1,2.6785886E0,5.807981E0,1.2748606E1,1.265488E1,4.81028E1,1.648039E1,1.7743608E1,1.0281602E1,1.5547038E0,8.222683E0,1.0580933E1,7.0225263E0,5.3136415E0,1.9217712E0,2.0402887E0,7.513978E0,1.2638435E0,1.116329E0,1.5250238E0,7.835468E0,4.6207676E0,1.7075651E0,1.4019893E1,1.8018285E0,1.3571384E0,1.3214502E0,3.755644E0,2.0523372E0,9.473446E0,3.2751606E0,1.0286823E1,2.3680565E0],"tree_param":{"num_deleted":"0","num_feature":"520","num_nodes":"61","size_leaf_vector":"1"}},{"base_weights":[1.0068709E-2,7.522589E-1,-3.7349556E-2,9.950088E-1,-1.8551698E-1,9.5582984E-2,-6.884377E-2,1.2078351E0,9.6500374E-2,-5.0367363E-2,2.886203E-2,1.34473685E-2,-3.69816E-1,3.0506441E-2,1.290056E-1,-1.777143E-2,3.173233E-2,-4.093601E-1,8.6809285E-2,-6.5854603E-1,1.01670146E-1,-2.2039501E-1,-1.6818242E-1,4.0092003E-2,7.1840674E-1,1.4045127E-1,-9.2232025E-1,-6.4811885E-1,2.93408E-1,3.628577E-2,-5.770558E-2,-1.6773444E-2,2.129201E-2,1.22366086E-1,-1.7387224E-2,6.978902E-2,-4.5582976E-2,1.0209131E-2,-1.144548E-1,2.1532405E-2,-1.3797824E-1,7.3940545E-2,-1.5540629E-2],"categories":[],"categories_nodes":[],"categories_segments":[],"categories_sizes":[],"default_left":[0,0,0,0,0,0,0,0,0,0,0,0,0,0,0,0,0,0,0,0,0,0,0,0,0,0,0,0,0,0,0,0,0,0,0,0,0,0,0,0,0,0,0],"id":15,"left_children":[1,3,5,7,9,-1,11,13,15,-1,-1,17,19,-1,-1,-1,-1,21,23,25,27,29,-1,31,33,35,37,39,41,-1,-1,-1,-1,-1,-1,-1,-1,-1,-1,-1,-1,-1,-1],"loss_changes":[7.59412E0,3.1343536E0,6.4163527E0,1.881834E0,6.7445135E-1,0E0,4.9019537E0,2.2715187E-1,2.4338849E-1,0E0,0E0,4.88152E0,5.8509016E0,0E0,0E0,0E0,0E0,5.2257934E0,3.9237933E0,5.7113075E0,2.6345778E0,4.664449E0,0E0,4.5538645E0,4.3454227E0,2.7914975E0,4.6797867E0,2.6814723E0,2.963099E0,0E0,0E0,0E0,0E0,0E0,0E0,0E0,0E0,0E0,0E0,0E0,0E0,0E0,0E0],"parents":[2147483647,0,0,1,1,2,2,3,3,4,4,6,6,7,7,8,8,11,11,12,12,17,17,18,18,19,19,20,20,21,21,23,23,24,24,25,25,26,26,27,27,28,28],"right_children":[2,4,6,8,10,-1,12,14,16,-1,-1,18,20,-1,-1,-1,-1,22,24,26,28,30,-1,32,34,36,38,40,42,-1,-1,-1,-1,-1,-1,-1,-1,-1,-1,-1,-1,-1,-1],"split_conditions":[1.270322E-1,1.4684612E-1,0E0,1.3928185E-1,1.5629022E-4,9.5582984E-2,1.0845448E-3,5.4212358E-2,2.3733595E-1,-5.0367363E-2,2.886203E-2,2.2240889E-3,1.9962408E-3,3.0506441E-2,1.290056E-1,-1.777143E-2,3.173233E-2,4.057016E-2,7.760879E-3,9.071737E-3,2.8882301E-3,3.5857567E-1,-1.6818242E-1,7.809425E-5,2.2036992E-2,7.048223E-1,1.0077794E-1,8.658846E-4,4.1214082E-1,3.628577E-2,-5.770558E-2,-1.6773444E-2,2.129201E-2,1.22366086E-1,-1.7387224E-2,6.978902E-2,-4.5582976E-2,1.0209131E-2,-1.144548E-1,2.1532405E-2,-1.3797824E-1,7.3940545E-2,-1.5540629E-2],"split_indices":[46,290,515,58,75,0,131,139,5,0,0,94,130,0,0,0,0,81,274,100,213,199,0,137,345,417,163,256,510,0,0,0,0,0,0,0,0,0,0,0,0,0,0],"split_type":[0,0,0,0,0,0,0,0,0,0,0,0,0,0,0,0,0,0,0,0,0,0,0,0,0,0,0,0,0,0,0,0,0,0,0,0,0,0,0,0,0,0,0],"sum_hessian":[2.1398434E2,1.1957731E1,2.0202661E2,9.450398E0,2.5073333E0,5.3073807E0,1.9671922E2,7.362261E0,2.0881374E0,1.4631991E0,1.0441341E0,1.552315E2,4.1487717E1,1.0077418E0,6.354519E0,1.0185431E0,1.0695943E0,2.2274817E1,1.329567E2,2.5484625E1,1.6003094E1,2.0416153E1,1.8586628E0,1.24789856E2,8.166836E0,6.441187E0,1.9043438E1,2.7742362E0,1.3228857E1,7.7405467E0,1.2675607E1,5.6671562E1,6.811829E1,4.977138E0,3.1896982E0,3.2409499E0,3.2002373E0,3.4910784E0,1.5552361E1,1.5962238E0,1.1780123E0,6.310499E0,6.918358E0],"tree_param":{"num_deleted":"0","num_feature":"520","num_nodes":"43","size_leaf_vector":"1"}},{"base_weights":[-2.5807612E-2,2.6266384E-1,-1.1560396E-1,7.8434217E-1,1.0295485E-1,-5.3943354E-1,-3.7271954E-2,1.07608E0,3.5037294E-2,5.3584087E-1,-2.1119405E-1,4.4163054E-1,-7.437691E-1,-1.4084719E-1,3.268119E-1,1.2567255E-1,9.528263E-3,-3.531779E-2,4.6150398E-2,-4.86267E-2,7.027986E-1,4.2469168E-1,-4.029235E-1,7.931529E-1,-3.553276E-2,-1.0494455E0,-7.119314E-2,7.9807585E-1,-1.8454723E-1,3.9548047E-2,8.329827E-1,-5.8800142E-2,8.4442943E-1,-1.2723814E-1,9.211373E-2,2.0615952E-1,-7.1708065E-1,2.2460124E-2,9.188969E-2,-1.3241668E0,-1.4091831E-1,-4.6169093E-1,6.736535E-2,1.09544635E-1,-1.9189935E-2,-2.7691254E-1,2.4950197E-1,7.5159305E-1,-2.4141102E-1,1.0348947E0,-4.8504855E-2,9.822436E-2,-2.2475895E-2,-3.9123658E-2,2.8343854E-2,5.6531366E-2,-7.225741E-2,-9.3107335E-2,-4.3368894E-3,-4.4510495E-2,-1.9017603E-1,4.399536E-2,-5.547906E-2,-7.599493E-2,3.5606895E-2,-3.3270553E-2,4.5127686E-2,7.053274E-2,-8.070431E-3,1.1174305E-1,-1.8278351E-2,-4.6578415E-2,4.7820352E-2,-6.7654075E-3,1.1756667E-1],"categories":[],"categories_nodes":[],"categories_segments":[],"categories_sizes":[],"default_left":[0,0,0,0,0,0,0,0,0,0,0,0,0,0,0,0,0,0,0,0,0,0,0,0,0,0,0,0,0,0,0,0,0,0,0,0,0,0,0,0,0,0,0,0,0,0,0,0,0,0,0,0,0,0,0,0,0,0,0,0,0,0,0,0,0,0,0,0,0,0,0,0,0,0,0],"id":16,"left_children":[1,3,5,7,9,11,13,15,17,19,21,23,25,27,29,-1,-1,-1,-1,-1,31,33,35,37,-1,39,41,43,45,47,49,-1,51,53,-1,55,57,-1,-1,59,61,63,-1,-1,-1,65,67,69,71,73,-1,-1,-1,-1,-1,-1,-1,-1,-1,-1,-1,-1,-1,-1,-1,-1,-1,-1,-1,-1,-1,-1,-1,-1,-1],"loss_changes":[5.54062E0,4.1519938E0,5.3886724E0,2.5322819E0,5.559121E0,5.4081407E0,5.2718387E0,1.3735476E0,8.795836E-1,3.263834E0,3.0877807E0,1.6812689E0,4.3133965E0,4.6026545E0,4.4735804E0,0E0,0E0,0E0,0E0,0E0,3.262188E0,1.76917E0,3.7631857E0,6.355262E-2,0E0,3.45788E0,2.56291E0,1.6871436E0,4.261362E0,4.3469567E0,3.4749246E0,0E0,2.289956E0,5.156805E-1,0E0,2.8120828E0,1.7888708E0,0E0,0E0,4.785631E0,1.3281406E0,1.6541657E0,0E0,0E0,0E0,3.67237E0,2.897736E0,2.3011682E0,2.75566E0,1.6325998E0,0E0,0E0,0E0,0E0,0E0,0E0,0E0,0E0,0E0,0E0,0E0,0E0,0E0,0E0,0E0,0E0,0E0,0E0,0E0,0E0,0E0,0E0,0E0,0E0,0E0],"parents":[2147483647,0,0,1,1,2,2,3,3,4,4,5,5,6,6,7,7,8,8,9,9,10,10,11,11,12,12,13,13,14,14,20,20,21,21,22,22,23,23,25,25,26,26,27,27,28,28,29,29,30,30,32,32,33,33,35,35,36,36,39,39,40,40,41,41,45,45,46,46,47,47,48,48,49,49],"right_children":[2,4,6,8,10,12,14,16,18,20,22,24,26,28,30,-1,-1,-1,-1,-1,32,34,36,38,-1,40,42,44,46,48,50,-1,52,54,-1,56,58,-1,-1,60,62,64,-1,-1,-1,66,68,70,72,74,-1,-1,-1,-1,-1,-1,-1,-1,-1,-1,-1,-1,-1,-1,-1,-1,-1,-1,-1,-1,-1,-1,-1,-1,-1],"split_conditions":[2.2411539E-1,1.657471E-3,2.4014911E-1,4.1801742E-1,5.0112075E-1,3.2229662E-2,1.9829501E-1,7.873911E-1,1.4884631E-2,8.07386E-3,2.884949E-3,5.5790473E-2,2.0248622E-1,3.8369521E-1,6.5756077E-3,1.2567255E-1,9.528263E-3,-3.531779E-2,4.6150398E-2,-4.86267E-2,1.5926108E-2,9.2273034E-2,1.5309521E-2,3.3863902E-3,-3.553276E-2,2.2644872E-2,2.3241306E-2,4.052343E-3,2.5937116E-1,2.9529674E-2,9.254498E-3,-5.8800142E-2,2.400346E-4,6.988978E-3,9.211373E-2,1.2760843E-2,7.1085595E-2,2.2460124E-2,9.188969E-2,6.335632E-1,1.7792747E-5,2.5466112E-3,6.736535E-2,1.09544635E-1,-1.9189935E-2,9.99221E-1,4.4325966E-2,1.3032933E-1,5.157418E-2,9.444199E0,-4.8504855E-2,9.822436E-2,-2.2475895E-2,-3.9123658E-2,2.8343854E-2,5.6531366E-2,-7.225741E-2,-9.3107335E-2,-4.3368894E-3,-4.4510495E-2,-1.9017603E-1,4.399536E-2,-5.547906E-2,-7.599493E-2,3.5606895E-2,-3.3270553E-2,4.5127686E-2,7.053274E-2,-8.070431E-3,1.1174305E-1,-1.8278351E-2,-4.6578415E-2,4.7820352E-2,-6.7654075E-3,1.1756667E-1],"split_indices":[0,43,0,154,414,451,215,172,228,425,367,6,344,510,367,0,0,0,0,0,95,58,152,478,0,422,321,466,416,249,280,0,193,107,0,228,258,0,0,229,205,83,0,0,0,369,386,241,374,155,0,0,0,0,0,0,0,0,0,0,0,0,0,0,0,0,0,0,0,0,0,0,0,0,0],"split_type":[0,0,0,0,0,0,0,0,0,0,0,0,0,0,0,0,0,0,0,0,0,0,0,0,0,0,0,0,0,0,0,0,0,0,0,0,0,0,0,0,0,0,0,0,0,0,0,0,0,0,0,0,0,0,0,0,0,0,0,0,0,0,0,0,0,0,0,0,0,0,0,0,0,0,0],"sum_hessian":[2.1172092E2,4.980307E1,1.6191785E2,1.0756533E1,3.9046535E1,2.4339273E1,1.3757857E2,7.428272E0,3.328261E0,1.612339E1,2.2923147E1,3.9953475E0,2.0343925E1,1.0758558E2,2.9992992E1,6.0353384E0,1.3929329E0,1.8322257E0,1.4960352E0,1.9953611E0,1.4128028E1,5.0290036E0,1.7894144E1,2.7757807E0,1.219567E0,1.3601771E1,6.742154E0,4.016919E0,1.0356866E2,1.982179E1,1.0171202E1,1.0852836E0,1.3042745E1,2.7335956E0,2.295408E0,6.205938E0,1.1688206E1,1.0073271E0,1.7684536E0,1.00925045E1,3.5092669E0,4.672614E0,2.0695398E0,3.0071018E0,1.0098174E0,8.569488E1,1.7873777E1,5.1343975E0,1.4687393E1,9.006322E0,1.1648793E0,1.1625573E1,1.4171715E0,1.6927615E0,1.0408341E0,4.757467E0,1.4484712E0,8.580694E0,3.1075122E0,4.7039704E0,5.388534E0,1.433843E0,2.075424E0,3.4756484E0,1.1969657E0,8.010076E1,5.594116E0,7.031411E0,1.0842365E1,3.5489597E0,1.5854379E0,1.1465289E1,3.2221034E0,1.0785282E0,7.9277945E0],"tree_param":{"num_deleted":"0","num_feature":"520","num_nodes":"75","size_leaf_vector":"1"}},{"base_weights":[4.204174E-2,-3.7134256E-2,3.4733206E-1,-4.3174118E-1,3.559346E-2,-8.195725E-1,4.366079E-1,-6.141556E-1,5.57889E-1,1.23590305E-1,-2.963503E-1,-1.3097145E-1,1.5087601E-3,2.584194E-1,9.964782E-1,-1.1539764E0,-3.0891585E-1,9.447084E-2,-1.2044839E-2,4.502793E-1,2.7930937E-3,-4.3322214E-1,8.360376E-2,4.2871304E-2,7.8073627E-1,1.1488869E0,-1.1291369E-2,1.0992228E-2,-1.46582E0,-6.612536E-1,3.3175653E-1,1.920213E-1,9.389442E-1,-7.1660936E-1,7.510993E-2,-5.4742716E-2,-8.11398E-1,2.387784E-1,-6.734208E-1,-3.0465856E-2,1.0048755E0,1.9170465E-2,1.2520896E-1,-1.6192403E-1,-4.2735245E-2,-1.0013568E-1,6.4706923E-3,-1.2258635E-2,9.3767904E-2,5.205925E-2,-3.0422429E-2,1.1509085E-1,-5.5914856E-3,5.2374642E-2,-1.092098E-1,-3.8582236E-2,2.2240987E-2,-3.357894E-2,4.9434353E-2,1.3825245E-2,-1.0762572E-1,8.3516106E-2,7.936164E-4,-1.01500764E-1,1.3635893E-2,1.1804463E-1,7.1745287E-3],"categories":[],"categories_nodes":[],"categories_segments":[],"categories_sizes":[],"default_left":[0,0,0,0,0,0,0,0,0,0,0,0,0,0,0,0,0,0,0,0,0,0,0,0,0,0,0,0,0,0,0,0,0,0,0,0,0,0,0,0,0,0,0,0,0,0,0,0,0,0,0,0,0,0,0,0,0,0,0,0,0,0,0,0,0,0,0],"id":17,"left_children":[1,3,5,7,9,11,13,15,17,19,21,-1,-1,23,25,27,29,-1,-1,31,33,35,-1,37,39,41,-1,-1,43,45,47,49,51,53,55,57,59,61,63,-1,65,-1,-1,-1,-1,-1,-1,-1,-1,-1,-1,-1,-1,-1,-1,-1,-1,-1,-1,-1,-1,-1,-1,-1,-1,-1,-1],"loss_changes":[5.1672735E0,4.9007635E0,4.9427147E0,5.1387067E0,4.262202E0,1.441546E0,3.8861628E0,3.4183044E0,1.3362669E0,4.5391445E0,5.1061277E0,0E0,0E0,3.665792E0,1.7660398E0,3.2784433E0,3.8310056E0,0E0,0E0,3.738544E0,4.476049E0,3.9583635E0,0E0,3.5731604E0,2.6271324E0,6.0933495E-1,0E0,0E0,3.2985687E-1,2.6959553E0,1.8611087E0,3.6758354E0,2.2742376E0,4.2322693E0,5.3913517E0,2.488431E0,3.649026E0,2.7237935E0,1.6553967E0,0E0,1.24891E0,0E0,0E0,0E0,0E0,0E0,0E0,0E0,0E0,0E0,0E0,0E0,0E0,0E0,0E0,0E0,0E0,0E0,0E0,0E0,0E0,0E0,0E0,0E0,0E0,0E0,0E0],"parents":[2147483647,0,0,1,1,2,2,3,3,4,4,5,5,6,6,7,7,8,8,9,9,10,10,13,13,14,14,15,15,16,16,19,19,20,20,21,21,23,23,24,24,25,25,28,28,29,29,30,30,31,31,32,32,33,33,34,34,35,35,36,36,37,37,38,38,40,40],"right_children":[2,4,6,8,10,12,14,16,18,20,22,-1,-1,24,26,28,30,-1,-1,32,34,36,-1,38,40,42,-1,-1,44,46,48,50,52,54,56,58,60,62,64,-1,66,-1,-1,-1,-1,-1,-1,-1,-1,-1,-1,-1,-1,-1,-1,-1,-1,-1,-1,-1,-1,-1,-1,-1,-1,-1,-1],"split_conditions":[2.8375955E-3,2.8190888E-2,1.7474633E-2,1.6506372E-2,9.902424E-2,4.645608E-1,3.9766487E-3,2.9333465E-2,6.7931047E-4,1.771338E-1,3.258674E-4,-1.3097145E-1,1.5087601E-3,6.757008E-2,1.8089289E-2,7.332463E-3,4.104934E-2,9.447084E-2,-1.2044839E-2,9.232454E-3,6.2597063E-3,7.838517E-2,8.360376E-2,4.1380882E-2,9.844188E-4,5.4455924E-1,-1.1291369E-2,1.0992228E-2,6.887782E-2,4.5437288E-2,6.5550385E-3,8.029062E-3,3.117087E0,2.7453372E-2,9.355348E-3,1.4921968E-2,9.632226E-3,3.3614854E-3,1.2071841E-1,-3.0465856E-2,7.2074234E-1,1.9170465E-2,1.2520896E-1,-1.6192403E-1,-4.2735245E-2,-1.0013568E-1,6.4706923E-3,-1.2258635E-2,9.3767904E-2,5.205925E-2,-3.0422429E-2,1.1509085E-1,-5.5914856E-3,5.2374642E-2,-1.092098E-1,-3.8582236E-2,2.2240987E-2,-3.357894E-2,4.9434353E-2,1.3825245E-2,-1.0762572E-1,8.3516106E-2,7.936164E-4,-1.01500764E-1,1.3635893E-2,1.1804463E-1,7.1745287E-3],"split_indices":[90,342,277,495,373,284,331,277,62,150,221,0,0,40,142,425,249,0,0,71,495,101,0,325,239,232,0,0,249,325,43,453,441,146,426,14,100,53,163,0,172,0,0,0,0,0,0,0,0,0,0,0,0,0,0,0,0,0,0,0,0,0,0,0,0,0,0],"split_type":[0,0,0,0,0,0,0,0,0,0,0,0,0,0,0,0,0,0,0,0,0,0,0,0,0,0,0,0,0,0,0,0,0,0,0,0,0,0,0,0,0,0,0,0,0,0,0,0,0,0,0,0,0,0,0,0,0,0,0,0,0,0,0,0,0,0,0],"sum_hessian":[2.1224039E2,1.6922963E2,4.301076E1,2.55677E1,1.4366193E2,2.4753811E0,4.053538E1,2.1908758E1,3.6589413E0,1.14054306E2,2.9607624E1,1.20097E0,1.2744112E0,3.1857685E1,8.677694E0,6.9091926E0,1.4999565E1,2.0800936E0,1.5788478E0,3.0052235E1,8.4002075E1,2.6965702E1,2.6419213E0,2.3317268E1,8.540418E0,7.5982437E0,1.0794507E0,1.4954906E0,5.413702E0,9.656726E0,5.3428397E0,2.0572617E1,9.479618E0,6.8590865E0,7.714298E1,1.4049591E1,1.2916112E1,1.8833044E1,4.484223E0,1.400287E0,7.1401305E0,1.0176162E0,6.5806274E0,4.2295766E0,1.1841257E0,6.317639E0,3.3390865E0,3.5091996E0,1.83364E0,1.2347861E1,8.224755E0,7.685329E0,1.7942886E0,1.5021561E0,5.3569303E0,1.829011E1,5.8852875E1,9.549957E0,4.499634E0,2.9209795E0,9.995132E0,4.5249405E0,1.43081045E1,2.9755986E0,1.5086243E0,5.7863717E0,1.353759E0],"tree_param":{"num_deleted":"0","num_feature":"520","num_nodes":"67","size_leaf_vector":"1"}},{"base_weights":[-1.3834789E-2,4.2310056E-1,-6.699686E-2,-2.2272983E-1,7.047497E-1,1.4996098E-1,-1.9029212E-1,-6.2764204E-1,3.376307E-1,8.367578E-1,-5.7491213E-2,-1.9922534E-1,3.3517694E-1,6.7287005E-2,-3.758483E-1,-8.519369E-2,-3.7199382E-3,8.281985E-2,-4.331947E-2,3.449911E-2,1.0029929E0,7.0860563E-3,-9.357361E-1,3.4103274E-2,5.754353E-1,-4.5386037E-1,3.3251607E-1,-6.801676E-1,-1.7137448E-1,6.413802E-2,-4.3125924E-2,1.1838435E0,-1.4596659E-2,-6.1926115E-1,2.2507335E-1,-1.476392E-1,-1.3757724E-1,-1.07349776E-1,1.881734E-1,9.6772045E-1,2.52059E-1,4.0764725E-1,-7.105531E-1,-3.3233044E-1,5.1448065E-1,2.2823204E-1,-8.04511E-1,3.089929E-2,-5.569582E-1,1.2590852E-1,2.2893151E-2,-7.520692E-3,-1.0186094E-1,9.930019E-2,1.7261745E-4,-5.3277105E-2,3.2142136E-2,3.6328882E-2,-8.998791E-2,1.163099E-1,9.326888E-3,6.1636128E-2,-1.3762576E-2,-4.4538755E-2,8.518079E-2,-9.159048E-3,-1.1032386E-1,-9.250317E-2,1.1551074E-2,-1.0729101E-3,7.612693E-2,8.5535154E-2,-4.611723E-2,-2.798318E-2,-1.08438924E-1,1.4412239E-2,-1.0868647E-1,-7.465007E-2,5.886976E-2],"categories":[],"categories_nodes":[],"categories_segments":[],"categories_sizes":[],"default_left":[0,0,0,0,0,0,0,0,0,0,0,0,0,0,0,0,0,0,0,0,0,0,0,0,0,0,0,0,0,0,0,0,0,0,0,0,0,0,0,0,0,0,0,0,0,0,0,0,0,0,0,0,0,0,0,0,0,0,0,0,0,0,0,0,0,0,0,0,0,0,0,0,0,0,0,0,0,0,0],"id":18,"left_children":[1,3,5,7,9,11,13,15,17,19,-1,21,23,25,27,-1,-1,-1,-1,29,31,33,35,37,39,41,43,45,47,-1,-1,49,-1,51,53,-1,55,-1,57,59,61,63,65,67,69,71,73,75,77,-1,-1,-1,-1,-1,-1,-1,-1,-1,-1,-1,-1,-1,-1,-1,-1,-1,-1,-1,-1,-1,-1,-1,-1,-1,-1,-1,-1,-1,-1],"loss_changes":[5.0146136E0,4.417316E0,5.1709576E0,1.9981228E0,3.2766685E0,4.6082687E0,5.905108E0,6.1985874E-1,1.853383E0,2.020401E0,0E0,3.8000069E0,3.326312E0,7.388456E0,4.342469E0,0E0,0E0,0E0,0E0,1.3169229E0,2.817668E0,2.93757E0,2.1574926E0,3.8867471E0,3.0115976E0,4.2886286E0,4.438851E0,3.3984594E0,3.4643474E0,0E0,0E0,5.098047E-1,0E0,1.130897E0,2.7316318E0,0E0,7.719929E-1,0E0,4.100776E0,1.8125257E0,2.2737994E0,2.1929557E0,3.373855E0,2.2802813E0,3.6490498E0,2.2128038E0,3.405281E0,3.9454145E0,3.7532682E0,0E0,0E0,0E0,0E0,0E0,0E0,0E0,0E0,0E0,0E0,0E0,0E0,0E0,0E0,0E0,0E0,0E0,0E0,0E0,0E0,0E0,0E0,0E0,0E0,0E0,0E0,0E0,0E0,0E0,0E0],"parents":[2147483647,0,0,1,1,2,2,3,3,4,4,5,5,6,6,7,7,8,8,9,9,11,11,12,12,13,13,14,14,19,19,20,20,21,21,22,22,23,23,24,24,25,25,26,26,27,27,28,28,31,31,33,33,34,34,36,36,38,38,39,39,40,40,41,41,42,42,43,43,44,44,45,45,46,46,47,47,48,48],"right_children":[2,4,6,8,10,12,14,16,18,20,-1,22,24,26,28,-1,-1,-1,-1,30,32,34,36,38,40,42,44,46,48,-1,-1,50,-1,52,54,-1,56,-1,58,60,62,64,66,68,70,72,74,76,78,-1,-1,-1,-1,-1,-1,-1,-1,-1,-1,-1,-1,-1,-1,-1,-1,-1,-1,-1,-1,-1,-1,-1,-1,-1,-1,-1,-1,-1,-1],"split_conditions":[3.8918566E-3,1.5173432E-1,6.7092216E-1,5.849676E-1,2.7787477E-2,1.4978991E-3,5.8828676E-1,5.8027193E-2,3.81569E-1,2.0690735E-1,-5.7491213E-2,1.1375002E-2,1.4476839E-1,6.641432E-2,8.905135E-4,-8.519369E-2,-3.7199382E-3,8.281985E-2,-4.331947E-2,1.5548097E-2,3.1333145E-1,1.6970346E-2,1.1738749E-1,3.3126857E-2,2.4597123E-2,2.3766166E-4,1.3724485E-1,9.476533E-3,7.1623907E-3,6.413802E-2,-4.3125924E-2,2.262263E-1,-1.4596659E-2,3.132013E-2,1.2827344E-1,-1.476392E-1,1.3330189E-2,-1.07349776E-1,2.34389E-2,1.3937914E-2,7.3785502E-3,6.981259E-2,6.906487E-2,3.2261317E-4,2.0779411E-1,4.158975E-5,4.9872932E-1,9.832789E-1,3.4936782E-2,1.2590852E-1,2.2893151E-2,-7.520692E-3,-1.0186094E-1,9.930019E-2,1.7261745E-4,-5.3277105E-2,3.2142136E-2,3.6328882E-2,-8.998791E-2,1.163099E-1,9.326888E-3,6.1636128E-2,-1.3762576E-2,-4.4538755E-2,8.518079E-2,-9.159048E-3,-1.1032386E-1,-9.250317E-2,1.1551074E-2,-1.0729101E-3,7.612693E-2,8.5535154E-2,-4.611723E-2,-2.798318E-2,-1.08438924E-1,1.4412239E-2,-1.0868647E-1,-7.465007E-2,5.886976E-2],"split_indices":[480,247,76,117,87,422,185,26,464,148,0,508,160,2,157,0,0,0,0,396,133,492,240,173,216,47,432,216,47,0,0,344,0,385,82,0,322,0,300,227,424,241,436,274,186,157,414,474,255,0,0,0,0,0,0,0,0,0,0,0,0,0,0,0,0,0,0,0,0,0,0,0,0,0,0,0,0,0,0],"split_type":[0,0,0,0,0,0,0,0,0,0,0,0,0,0,0,0,0,0,0,0,0,0,0,0,0,0,0,0,0,0,0,0,0,0,0,0,0,0,0,0,0,0,0,0,0,0,0,0,0,0,0,0,0,0,0,0,0,0,0,0,0,0,0,0,0,0,0,0,0,0,0,0,0,0,0,0,0,0,0],"sum_hessian":[2.1366264E2,2.2421682E1,1.9124095E2,6.8723526E0,1.5549331E1,6.922035E1,1.2202061E2,3.919839E0,2.9525137E0,1.4409026E1,1.1403043E0,2.396454E1,4.525581E1,5.1361164E1,7.065944E1,2.5197635E0,1.4000754E0,1.758769E0,1.1937445E0,2.6804712E0,1.1728555E1,1.9494204E1,4.4703374E0,2.0592625E1,2.4663185E1,1.7083221E1,3.4277943E1,2.7461672E1,4.319777E1,1.0001776E0,1.6802936E0,1.010727E1,1.6212845E0,4.55769E0,1.4936514E1,2.1584811E0,2.3118563E0,1.7859491E0,1.8806675E1,1.0243874E1,1.4419312E1,3.7866063E0,1.3296615E1,7.1881504E0,2.7089792E1,3.20582E0,2.4255852E1,2.8937355E1,1.4260414E1,9.073772E0,1.0334973E0,2.4323244E0,2.1253655E0,2.5889604E0,1.2347553E1,1.1559062E0,1.1559502E0,1.6773237E1,2.0334394E0,8.103271E0,2.140603E0,7.1517277E0,7.2675843E0,1.2955909E0,2.4910154E0,5.639968E0,7.6566467E0,2.635125E0,4.5530257E0,8.965709E0,1.8124083E1,1.5526946E0,1.6531256E0,9.133462E0,1.5122391E1,2.7066713E1,1.8706416E0,1.2534979E1,1.7254355E0],"tree_param":{"num_deleted":"0","num_feature":"520","num_nodes":"79","size_leaf_vector":"1"}},{"base_weights":[5.111375E-3,-2.1322453E-1,1.0375245E-1,-4.637284E-1,4.2800244E-2,5.7213014E-1,4.243783E-2,6.177459E-1,-5.93684E-1,-8.678146E-2,9.1945857E-1,7.6731E-1,-5.244219E-1,4.6673837E-1,-3.4378458E-2,8.924591E-2,-6.66212E-3,-8.642153E-1,4.659659E-2,-2.992081E-1,3.8647348E-1,2.3834743E-2,1.049605E-1,-4.2472955E-2,9.5692366E-1,-1.7129526E-2,-6.270897E-2,-2.7309692E-1,6.7959535E-1,-1.2002286E-1,4.7606817E-1,-1.6411248E0,-4.84248E-1,2.9792935E-1,-5.6773925E-1,9.844664E-2,-5.8782536E-1,-1.905833E-1,6.848029E-1,-1.1052978E-2,1.1309407E0,-1.0650653E-1,2.2769952E-1,7.8767544E-1,-3.367385E-2,-4.024605E-2,-5.128295E-1,6.396524E-1,-7.341038E-2,-2.9905504E-2,-1.92489E-1,-9.405695E-2,-1.0786138E-2,-1.0048905E-2,6.59106E-2,-7.4899934E-2,-1.0020692E-2,-2.5480032E-2,6.506755E-2,3.44239E-2,-7.1746014E-2,-5.821189E-2,4.1443076E-2,-7.439998E-3,1.0932863E-1,-1.0141995E-2,1.2722088E-1,5.9229333E-2,-3.3388566E-2,2.0831265E-2,1.0981164E-1,3.3511963E-2,-1.5143894E-2,-8.496995E-2,1.0817458E-2,3.9276113E-3,1.04692295E-1],"categories":[],"categories_nodes":[],"categories_segments":[],"categories_sizes":[],"default_left":[0,0,0,0,0,0,0,0,0,0,0,0,0,0,0,0,0,0,0,0,0,0,0,0,0,0,0,0,0,0,0,0,0,0,0,0,0,0,0,0,0,0,0,0,0,0,0,0,0,0,0,0,0,0,0,0,0,0,0,0,0,0,0,0,0,0,0,0,0,0,0,0,0,0,0,0,0],"id":19,"left_children":[1,3,5,7,9,11,13,15,17,19,21,23,25,27,29,-1,-1,31,33,35,37,-1,-1,-1,39,-1,-1,41,43,45,47,49,51,53,55,57,59,61,63,-1,65,-1,67,69,-1,71,73,75,-1,-1,-1,-1,-1,-1,-1,-1,-1,-1,-1,-1,-1,-1,-1,-1,-1,-1,-1,-1,-1,-1,-1,-1,-1,-1,-1,-1,-1],"loss_changes":[4.59419E0,4.2778187E0,4.1944394E0,5.0948544E0,3.9136362E0,4.0246067E0,4.284948E0,8.300791E-1,5.330738E0,3.163422E0,1.427331E-1,3.7455292E0,6.830752E-3,3.358141E0,4.945975E0,0E0,0E0,5.558571E0,1.7163656E0,2.5240514E0,1.822527E0,0E0,0E0,0E0,2.5496645E0,0E0,0E0,2.3106465E0,2.0152287E0,3.0052724E0,3.690192E0,1.9569416E0,2.6245852E0,1.1839247E0,2.0066285E-1,2.0957518E0,1.7687473E0,1.2200153E0,2.1581402E0,0E0,2.0984402E0,0E0,1.0205125E0,2.4150705E0,0E0,3.4459493E0,3.4841118E0,3.5937948E0,0E0,0E0,0E0,0E0,0E0,0E0,0E0,0E0,0E0,0E0,0E0,0E0,0E0,0E0,0E0,0E0,0E0,0E0,0E0,0E0,0E0,0E0,0E0,0E0,0E0,0E0,0E0,0E0,0E0],"parents":[2147483647,0,0,1,1,2,2,3,3,4,4,5,5,6,6,7,7,8,8,9,9,10,10,11,11,12,12,13,13,14,14,17,17,18,18,19,19,20,20,24,24,27,27,28,28,29,29,30,30,31,31,32,32,33,33,34,34,35,35,36,36,37,37,38,38,40,40,42,42,43,43,45,45,46,46,47,47],"right_children":[2,4,6,8,10,12,14,16,18,20,22,24,26,28,30,-1,-1,32,34,36,38,-1,-1,-1,40,-1,-1,42,44,46,48,50,52,54,56,58,60,62,64,-1,66,-1,68,70,-1,72,74,76,-1,-1,-1,-1,-1,-1,-1,-1,-1,-1,-1,-1,-1,-1,-1,-1,-1,-1,-1,-1,-1,-1,-1,-1,-1,-1,-1,-1,-1],"split_conditions":[7.023397E-4,3.5927385E-6,2.1962E-2,1.00433215E-1,3.8622584E-2,1.6027987E-2,9.071006E-2,1.737236E-2,2.2243062E-1,1.3225715E-2,2.5330013E-1,1.1337693E-1,2.193404E-1,1.142749E-2,3.4703225E-2,8.924591E-2,-6.66212E-3,1.8301496E-2,1.8246004E-1,7.07224E-4,6.2898114E-2,2.3834743E-2,1.049605E-1,-4.2472955E-2,5.379678E-1,-1.7129526E-2,-6.270897E-2,2.367937E-2,7.871529E-2,3.5126144E-1,1.6618142E-2,1.6434401E-1,3.8087466E-3,1.2295479E-3,5.356343E-2,3.2096934E-1,4.2616513E-2,2.5938472E-1,2.599985E-4,-1.1052978E-2,6.1824426E2,-1.0650653E-1,3.6432822E-3,2.8764112E-3,-3.367385E-2,3.2320768E-3,3.8438495E-3,1.7812533E-2,-7.341038E-2,-2.9905504E-2,-1.92489E-1,-9.405695E-2,-1.0786138E-2,-1.0048905E-2,6.59106E-2,-7.4899934E-2,-1.0020692E-2,-2.5480032E-2,6.506755E-2,3.44239E-2,-7.1746014E-2,-5.821189E-2,4.1443076E-2,-7.439998E-3,1.0932863E-1,-1.0141995E-2,1.2722088E-1,5.9229333E-2,-3.3388566E-2,2.0831265E-2,1.0981164E-1,3.3511963E-2,-1.5143894E-2,-8.496995E-2,1.0817458E-2,3.9276113E-3,1.04692295E-1],"split_indices":[415,470,468,438,446,490,431,57,416,312,0,240,416,44,422,0,0,293,483,242,40,0,0,0,382,0,0,401,146,32,90,41,269,170,45,305,469,108,62,0,513,0,96,233,0,246,331,27,0,0,0,0,0,0,0,0,0,0,0,0,0,0,0,0,0,0,0,0,0,0,0,0,0,0,0,0,0],"split_type":[0,0,0,0,0,0,0,0,0,0,0,0,0,0,0,0,0,0,0,0,0,0,0,0,0,0,0,0,0,0,0,0,0,0,0,0,0,0,0,0,0,0,0,0,0,0,0,0,0,0,0,0,0,0,0,0,0,0,0,0,0,0,0,0,0,0,0,0,0,0,0,0,0,0,0,0,0],"sum_hessian":[2.1129005E2,6.539053E1,1.4589952E2,3.2641575E1,3.274896E1,1.592426E1,1.2997525E2,3.0989544E0,2.9542622E1,2.931659E1,3.432371E0,1.3772998E1,2.151262E0,1.9145823E1,1.1082943E2,1.994338E0,1.1046163E0,2.0521946E1,9.020675E0,2.0488033E1,8.828556E0,1.0048655E0,2.4275053E0,1.7199918E0,1.2053006E1,1.0856395E0,1.0656224E0,4.2144585E0,1.4931365E1,9.55608E1,1.5268637E1,5.6501355E0,1.4871811E1,6.7671747E0,2.2535005E0,8.893515E0,1.1594518E1,3.1318336E0,5.6967225E0,1.7406089E0,1.0312397E1,1.1961316E0,3.0183265E0,1.3699501E1,1.2318643E0,8.034553E1,1.5215266E1,1.3865776E1,1.4028606E0,1.3446205E0,4.305515E0,6.044577E0,8.827234E0,3.560888E0,3.2062867E0,1.1900839E0,1.0634167E0,5.7524276E0,3.1410868E0,1.2135721E0,1.0380946E1,1.9243381E0,1.2074955E0,2.2789512E0,3.417771E0,1.0895677E0,9.22283E0,1.7969954E0,1.2213312E0,5.3625755E0,8.3369255E0,1.7901081E1,6.244445E1,9.625531E0,5.589735E0,6.0474253E0,7.818351E0],"tree_param":{"num_deleted":"0","num_feature":"520","num_nodes":"77","size_leaf_vector":"1"}},{"base_weights":[7.754595E-2,2.0083618E-1,-6.549291E-2,-3.4675322E-2,3.9849728E-1,2.170097E-2,-6.620904E-1,-7.2948116E-1,5.8362912E-2,-1.9406763E-1,4.898356E-1,-2.53415E-1,2.4739918E-1,-1.0256397E0,1.9715895E-1,9.3487956E-2,-1.426674E-1,1.9341063E-1,-4.1159603E-1,-4.6998852E-1,4.283612E-1,7.5277823E-1,2.84336E-1,-5.467481E-1,4.3720674E-2,6.333114E-1,1.1600229E-2,-1.2522432E0,1.4090215E-2,-4.6033718E-2,8.7402456E-2,4.5574766E-2,-2.908209E-2,7.216978E-2,7.3041546E-1,-8.060524E-1,8.157288E-2,-6.4270455E-1,9.95748E-3,-2.0281231E-2,7.918475E-2,9.365426E-1,6.079654E-3,-3.9691785E-1,5.1045936E-1,-1.283757E0,-1.9875838E-1,-2.625395E-1,4.5072198E-1,8.9476806E-1,-1.7448483E-1,3.2552302E-1,-4.336876E-1,-1.4088455E-2,-1.5186828E0,-6.496029E-2,1.8647099E-2,-6.6455766E-3,1.0039284E-1,-1.0099367E-1,1.5672528E-4,6.320038E-2,-4.3226473E-2,-7.786217E-2,-7.207622E-3,1.8336086E-2,1.1166538E-1,7.683595E-2,-3.837296E-2,-6.783476E-2,2.048522E-2,9.340616E-2,2.0093938E-2,-1.558714E-1,-1.2917732E-3,3.090711E-2,-6.7643575E-2,2.0783093E-2,-5.573657E-2,6.2887676E-2,-4.508543E-2,3.794458E-2,1.2302362E-1,3.9839644E-2,-4.603117E-2,7.339909E-2,-3.914198E-4,-1.0409236E-1,-4.589919E-4,-1.670206E-1,-4.6748206E-2],"categories":[],"categories_nodes":[],"categories_segments":[],"categories_sizes":[],"default_left":[0,0,0,0,0,0,0,0,0,0,0,0,0,0,0,0,0,0,0,0,0,0,0,0,0,0,0,0,0,0,0,0,0,0,0,0,0,0,0,0,0,0,0,0,0,0,0,0,0,0,0,0,0,0,0,0,0,0,0,0,0,0,0,0,0,0,0,0,0,0,0,0,0,0,0,0,0,0,0,0,0,0,0,0,0,0,0,0,0,0,0],"id":20,"left_children":[1,3,5,7,9,11,13,15,17,19,21,23,25,27,29,31,-1,33,35,37,39,41,43,45,47,49,51,53,-1,-1,-1,-1,-1,55,57,59,61,63,-1,-1,-1,65,67,69,71,73,75,77,79,81,83,85,87,-1,89,-1,-1,-1,-1,-1,-1,-1,-1,-1,-1,-1,-1,-1,-1,-1,-1,-1,-1,-1,-1,-1,-1,-1,-1,-1,-1,-1,-1,-1,-1,-1,-1,-1,-1,-1,-1],"loss_changes":[3.8250055E0,5.429349E0,5.258716E0,3.5336137E0,3.5227165E0,5.5844917E0,4.2278986E0,3.835091E0,3.1611075E0,1.7769146E0,2.7662706E0,3.5600038E0,4.48405E0,2.6128683E0,2.4807713E0,6.7513484E-1,0E0,2.447091E0,2.2362623E0,7.3620355E-1,9.270881E-1,3.2311163E0,5.2193995E0,4.9999046E0,2.745979E0,4.105902E0,4.566239E0,2.1012897E0,0E0,0E0,0E0,0E0,0E0,2.7968426E0,1.5841875E0,1.0374765E0,1.932411E0,3.6094284E-1,0E0,0E0,0E0,2.362379E0,1.9782574E0,1.6086869E0,3.0754871E0,2.2121677E0,3.8723335E0,1.8716152E0,1.7965125E0,2.0038357E0,1.0691975E0,2.5781577E0,3.5175366E0,0E0,2.0748615E-1,0E0,0E0,0E0,0E0,0E0,0E0,0E0,0E0,0E0,0E0,0E0,0E0,0E0,0E0,0E0,0E0,0E0,0E0,0E0,0E0,0E0,0E0,0E0,0E0,0E0,0E0,0E0,0E0,0E0,0E0,0E0,0E0,0E0,0E0,0E0,0E0],"parents":[2147483647,0,0,1,1,2,2,3,3,4,4,5,5,6,6,7,7,8,8,9,9,10,10,11,11,12,12,13,13,14,14,15,15,17,17,18,18,19,19,20,20,21,21,22,22,23,23,24,24,25,25,26,26,27,27,33,33,34,34,35,35,36,36,37,37,41,41,42,42,43,43,44,44,45,45,46,46,47,47,48,48,49,49,50,50,51,51,52,52,54,54],"right_children":[2,4,6,8,10,12,14,16,18,20,22,24,26,28,30,32,-1,34,36,38,40,42,44,46,48,50,52,54,-1,-1,-1,-1,-1,56,58,60,62,64,-1,-1,-1,66,68,70,72,74,76,78,80,82,84,86,88,-1,90,-1,-1,-1,-1,-1,-1,-1,-1,-1,-1,-1,-1,-1,-1,-1,-1,-1,-1,-1,-1,-1,-1,-1,-1,-1,-1,-1,-1,-1,-1,-1,-1,-1,-1,-1,-1],"split_conditions":[6.942389E-2,2.9129926E-3,6.842079E-2,2.2313224E-1,7.644874E-2,3.9898936E-2,7.060346E-2,4.136077E-1,3.4081128E-1,1.2953379E-3,1.3749616E-2,3.719008E-1,2.445833E-2,1.5258187E-1,1.8579473E-3,2.0845553E-4,-1.426674E-1,3.532851E-2,2.104369E-2,1.3217577E-1,1.9025678E-3,1.1268165E-1,1.0826359E-2,7.9958504E-1,3.2687202E-2,7.021943E-1,7.274862E-3,1.0783815E-1,1.4090215E-2,-4.6033718E-2,8.7402456E-2,4.5574766E-2,-2.908209E-2,5.3903764E-1,2.0055111E-1,5.464671E-1,2.9473245E-1,4.0327758E-3,9.95748E-3,-2.0281231E-2,7.918475E-2,1.7868368E-1,5.926027E-2,8.546651E-2,1.977145E-2,1.7567526E0,7.418306E-3,3.6544424E-2,1.9662683E2,1.18281834E-1,1.05063245E-2,1.0901565E-1,5.1538486E-2,-1.4088455E-2,3.9632446E-3,-6.496029E-2,1.8647099E-2,-6.6455766E-3,1.0039284E-1,-1.0099367E-1,1.5672528E-4,6.320038E-2,-4.3226473E-2,-7.786217E-2,-7.207622E-3,1.8336086E-2,1.1166538E-1,7.683595E-2,-3.837296E-2,-6.783476E-2,2.048522E-2,9.340616E-2,2.0093938E-2,-1.558714E-1,-1.2917732E-3,3.090711E-2,-6.7643575E-2,2.0783093E-2,-5.573657E-2,6.2887676E-2,-4.508543E-2,3.794458E-2,1.2302362E-1,3.9839644E-2,-4.603117E-2,7.339909E-2,-3.914198E-4,-1.0409236E-1,-4.589919E-4,-1.670206E-1,-4.6748206E-2],"split_indices":[34,106,194,343,341,359,126,393,296,263,246,15,370,387,252,106,0,159,71,201,28,498,300,56,489,76,71,515,0,0,0,0,0,382,116,284,429,334,0,0,0,99,26,392,370,315,63,463,518,357,227,163,40,0,176,0,0,0,0,0,0,0,0,0,0,0,0,0,0,0,0,0,0,0,0,0,0,0,0,0,0,0,0,0,0,0,0,0,0,0,0],"split_type":[0,0,0,0,0,0,0,0,0,0,0,0,0,0,0,0,0,0,0,0,0,0,0,0,0,0,0,0,0,0,0,0,0,0,0,0,0,0,0,0,0,0,0,0,0,0,0,0,0,0,0,0,0,0,0,0,0,0,0,0,0,0,0,0,0,0,0,0,0,0,0,0,0,0,0,0,0,0,0,0,0,0,0,0,0,0,0,0,0,0,0],"sum_hessian":[2.1514903E2,1.1533428E2,9.981476E1,5.3004475E1,6.2329807E1,8.792759E1,1.1887163E1,5.4515862E0,4.7552887E1,8.174213E0,5.4155594E1,3.9570335E1,4.8357258E1,8.216928E0,3.6702356E0,2.8973958E0,2.5541902E0,3.739538E1,1.0157509E1,5.833259E0,2.3409548E0,2.258907E1,3.1566525E1,1.9489843E1,2.008049E1,1.7701273E1,3.0655987E1,6.818878E0,1.398049E0,2.0240273E0,1.6462084E0,1.3957942E0,1.5016017E0,3.1433056E1,5.9623227E0,5.2910666E0,4.8664427E0,4.377421E0,1.4558383E0,1.01701E0,1.3239448E0,1.7923748E1,4.6653223E0,7.678323E0,2.3888203E1,5.388485E0,1.4101359E1,1.1660867E1,8.419622E0,1.329157E1,4.409703E0,1.813792E1,1.2518065E1,1.614274E0,5.204604E0,3.6570146E0,2.7776043E1,1.7169818E0,4.245341E0,4.024554E0,1.2665128E0,2.2385285E0,2.6279144E0,3.2409618E0,1.1364591E0,3.8484595E0,1.4075289E1,1.2499342E0,3.415388E0,5.144937E0,2.5333855E0,9.233569E0,1.4654633E1,4.243783E0,1.1447022E0,7.006046E0,7.095313E0,4.60656E0,7.054307E0,7.282954E0,1.1366684E0,6.081183E0,7.2103863E0,1.3367078E0,3.072995E0,7.5494165E0,1.0588504E1,4.592775E0,7.9252906E0,4.0342407E0,1.1703634E0],"tree_param":{"num_deleted":"0","num_feature":"520","num_nodes":"91","size_leaf_vector":"1"}},{"base_weights":[3.4923304E-2,9.220792E-2,1.0322867E-2,-1.4214079E-1,1.220659E-1,-1.5630292E-2,-5.060823E-1,4.1084163E-2,5.2334327E-1,-1.4148061E-1,5.263925E-1,-7.515773E-1,1.4611525E-2,-5.2305096E-1,1.0937022E-1,9.258254E-1,-8.150074E-2,-3.342365E-1,2.1266954E-1,8.5671467E-1,-1.9494548E-1,-1.1772617E0,-1.3325822E-1,4.1085407E-1,-8.580953E-2,-8.4139395E-1,1.171436E-1,-2.8767473E-1,2.0039135E-1,1.118233E0,-1.2341007E-2,-5.366663E-1,7.901058E-2,6.9328668E-3,-5.5010896E-2,-1.6993245E-2,5.344112E-2,1.09124385E-1,-2.0589251E-2,2.4191022E-2,-5.1160824E-2,-1.38156E-1,5.2179024E-3,4.188333E-2,-6.900894E-2,-2.684391E-2,7.6134086E-2,1.6673869E-2,-1.2715514E-1,-6.1832905E-2,5.4037727E-2,-7.479375E-2,1.2567227E-2,6.987707E-2,5.976844E-3,1.2579687E-1,3.0105531E-2,3.0307231E-2,-1.1719544E-1],"categories":[],"categories_nodes":[],"categories_segments":[],"categories_sizes":[],"default_left":[0,0,0,0,0,0,0,0,0,0,0,0,0,0,0,0,0,0,0,0,0,0,0,0,0,0,0,0,0,0,0,0,0,0,0,0,0,0,0,0,0,0,0,0,0,0,0,0,0,0,0,0,0,0,0,0,0,0,0],"id":21,"left_children":[1,-1,3,5,7,9,11,13,15,17,19,21,23,25,27,29,31,33,35,37,39,41,43,45,-1,47,49,51,53,55,-1,57,-1,-1,-1,-1,-1,-1,-1,-1,-1,-1,-1,-1,-1,-1,-1,-1,-1,-1,-1,-1,-1,-1,-1,-1,-1,-1,-1],"loss_changes":[4.570239E0,0E0,3.5132053E0,4.00914E0,3.8438559E0,4.5611362E0,2.8836732E0,3.9117506E0,4.917159E0,3.7688167E0,3.170657E0,3.8679962E0,3.1817646E0,2.335675E0,3.3131819E0,2.5652208E0,3.941291E0,3.1278255E0,2.5161648E0,2.4256663E0,7.8418946E-1,2.3147879E0,2.5524755E0,1.7050143E0,0E0,3.4442897E0,1.7421501E0,3.3682384E0,5.135456E0,7.927799E-1,0E0,3.7799726E0,0E0,0E0,0E0,0E0,0E0,0E0,0E0,0E0,0E0,0E0,0E0,0E0,0E0,0E0,0E0,0E0,0E0,0E0,0E0,0E0,0E0,0E0,0E0,0E0,0E0,0E0,0E0],"parents":[2147483647,0,0,2,2,3,3,4,4,5,5,6,6,7,7,8,8,9,9,10,10,11,11,12,12,13,13,14,14,15,15,16,16,17,17,18,18,19,19,20,20,21,21,22,22,23,23,25,25,26,26,27,27,28,28,29,29,31,31],"right_children":[2,-1,4,6,8,10,12,14,16,18,20,22,24,26,28,30,32,34,36,38,40,42,44,46,-1,48,50,52,54,56,-1,58,-1,-1,-1,-1,-1,-1,-1,-1,-1,-1,-1,-1,-1,-1,-1,-1,-1,-1,-1,-1,-1,-1,-1,-1,-1,-1,-1],"split_conditions":[0E0,9.220792E-2,4.1637695E-3,2.8809803E-2,3.3955674E-3,2.8840688E-1,4.0075514E-1,1.1547854E-1,5.5207822E-2,4.599216E-1,6.7066104E-4,8.30814E-3,1.1445181E-1,5.997198E-2,1.08296275E-2,2.0729479E-1,8.7124914E-2,5.5111974E-4,1.658445E-2,1.8870315E-1,4.4497447E-3,1.1317199E-1,2.8055865E-1,8.761764E-3,-8.580953E-2,1.2951099E-2,2.2375219E-2,1.058738E-1,1.8508353E-4,8.66244E-6,-1.2341007E-2,1.0035732E-3,7.901058E-2,6.9328668E-3,-5.5010896E-2,-1.6993245E-2,5.344112E-2,1.09124385E-1,-2.0589251E-2,2.4191022E-2,-5.1160824E-2,-1.38156E-1,5.2179024E-3,4.188333E-2,-6.900894E-2,-2.684391E-2,7.6134086E-2,1.6673869E-2,-1.2715514E-1,-6.1832905E-2,5.4037727E-2,-7.479375E-2,1.2567227E-2,6.987707E-2,5.976844E-3,1.2579687E-1,3.0105531E-2,3.0307231E-2,-1.1719544E-1],"split_indices":[515,0,452,75,54,454,510,240,225,390,470,309,401,359,349,17,365,472,345,59,142,419,0,370,0,165,95,363,50,8,0,213,0,0,0,0,0,0,0,0,0,0,0,0,0,0,0,0,0,0,0,0,0,0,0,0,0,0,0],"split_type":[0,0,0,0,0,0,0,0,0,0,0,0,0,0,0,0,0,0,0,0,0,0,0,0,0,0,0,0,0,0,0,0,0,0,0,0,0,0,0,0,0,0,0,0,0,0,0,0,0,0,0,0,0,0,0,0,0,0,0],"sum_hessian":[2.088455E2,4.6505976E0,2.0419492E2,8.624672E1,1.1794819E2,6.477358E1,2.1473137E1,9.905941E1,1.8888783E1,5.3167736E1,1.1605847E1,1.4291577E1,7.18156E0,9.976913E0,8.90825E1,1.1023029E1,7.865753E0,3.446529E1,1.8702446E1,7.8317714E0,3.774076E0,7.928913E0,6.3626647E0,5.3030086E0,1.8785515E0,6.4535456E0,3.5233674E0,1.621038E1,7.2872116E1,9.259308E0,1.7637212E0,5.419757E0,2.445996E0,1.2247643E1,2.2217646E1,8.758743E0,9.943704E0,6.3936687E0,1.4381031E0,1.6852431E0,2.0888329E0,6.6929955E0,1.2359174E0,3.3193724E0,3.043292E0,1.88456E0,3.4184484E0,2.113245E0,4.3403006E0,1.1185857E0,2.4047818E0,7.2869167E0,8.923464E0,1.5163235E1,5.7708878E1,7.446556E0,1.8127518E0,2.5594947E0,2.8602622E0],"tree_param":{"num_deleted":"0","num_feature":"520","num_nodes":"59","size_leaf_vector":"1"}},{"base_weights":[3.6886442E-2,8.07227E-2,-7.2162974E-1,2.35391E-2,5.1279175E-1,5.43172E-2,-1.1389413E0,1.093049E-1,-2.6975426E-1,-3.63328E-1,6.9905156E-1,-5.2979404E-1,8.477982E-2,-1.4194455E0,2.9678097E-2,-6.8514645E-3,3.9934146E-1,-3.7510443E-1,4.8408294E-1,-6.790769E-1,3.5259735E-2,8.549102E-1,-3.87196E-2,-5.3414614E-3,-7.821774E-2,-1.6729864E-1,-3.0552387E-2,1.0662098E-1,-3.7049592E-1,1.0413833E0,2.2945562E-1,2.9462495E-1,-4.7997138E-1,8.12717E-2,-2.9943688E-2,-7.7086696E-3,-9.1952085E-2,1.0346993E0,-6.028242E-2,1.886075E-2,-4.9334556E-2,-5.3368967E-2,4.6882894E-2,1.24834836E-1,-1.3508933E-2,4.8223168E-2,-4.7477376E-2,7.9930425E-2,-8.008247E-3,2.5359398E-2,-5.8614817E-2,3.9683025E-2,1.29823E-1,-4.995658E-2,4.3412134E-2],"categories":[],"categories_nodes":[],"categories_segments":[],"categories_sizes":[],"default_left":[0,0,0,0,0,0,0,0,0,0,0,0,0,0,0,0,0,0,0,0,0,0,0,0,0,0,0,0,0,0,0,0,0,0,0,0,0,0,0,0,0,0,0,0,0,0,0,0,0,0,0,0,0,0,0],"id":22,"left_children":[1,3,5,7,9,11,13,15,17,19,21,23,-1,25,-1,27,29,31,33,35,-1,37,-1,-1,-1,-1,-1,39,41,43,45,47,49,-1,-1,-1,-1,51,53,-1,-1,-1,-1,-1,-1,-1,-1,-1,-1,-1,-1,-1,-1,-1,-1],"loss_changes":[6.895965E0,4.8134193E0,3.7325292E0,4.3944864E0,3.9712324E0,2.72897E0,3.4082537E0,4.5500484E0,3.3225658E0,1.2909768E0,3.5693197E0,3.7285316E-1,0E0,1.2900572E0,0E0,4.0569897E0,3.9729667E0,2.618124E0,1.6044865E0,4.4583035E-1,0E0,2.8660183E0,0E0,0E0,0E0,0E0,0E0,3.7813787E0,3.4524755E0,2.0671616E0,5.89297E0,1.084024E0,2.5530844E0,0E0,0E0,0E0,0E0,1.8880262E0,1.0297159E0,0E0,0E0,0E0,0E0,0E0,0E0,0E0,0E0,0E0,0E0,0E0,0E0,0E0,0E0,0E0,0E0],"parents":[2147483647,0,0,1,1,2,2,3,3,4,4,5,5,6,6,7,7,8,8,9,9,10,10,11,11,13,13,15,15,16,16,17,17,18,18,19,19,21,21,27,27,28,28,29,29,30,30,31,31,32,32,37,37,38,38],"right_children":[2,4,6,8,10,12,14,16,18,20,22,24,-1,26,-1,28,30,32,34,36,-1,38,-1,-1,-1,-1,-1,40,42,44,46,48,50,-1,-1,-1,-1,52,54,-1,-1,-1,-1,-1,-1,-1,-1,-1,-1,-1,-1,-1,-1,-1,-1],"split_conditions":[3.8562053E-1,3.4956923E-3,4.9170338E-2,4.663692E-2,8.740403E-3,4.1925383E-1,2.6843635E-2,2.0491885E-2,9.1525756E-2,4.950389E-3,1.4832374E-1,1.938701E-1,8.477982E-2,5.3894676E-2,2.9678097E-2,1.432305E-3,1.3887838E-3,5.358737E-1,2.0445924E-1,4.67951E-2,3.5259735E-2,3.4138504E-2,-3.87196E-2,-5.3414614E-3,-7.821774E-2,-1.6729864E-1,-3.0552387E-2,1.2478574E-1,2.7725289E-2,1.2458646E-2,6.326493E-1,3.491971E-2,1.3366306E-1,8.12717E-2,-2.9943688E-2,-7.7086696E-3,-9.1952085E-2,1.136215E-2,8.612033E-2,1.886075E-2,-4.9334556E-2,-5.3368967E-2,4.6882894E-2,1.24834836E-1,-1.3508933E-2,4.8223168E-2,-4.7477376E-2,7.9930425E-2,-8.008247E-3,2.5359398E-2,-5.8614817E-2,3.9683025E-2,1.29823E-1,-4.995658E-2,4.3412134E-2],"split_indices":[499,54,373,264,156,179,71,152,463,142,498,17,0,7,0,470,6,382,237,16,0,44,0,0,0,0,0,373,177,478,185,342,259,0,0,0,0,495,283,0,0,0,0,0,0,0,0,0,0,0,0,0,0,0,0],"split_type":[0,0,0,0,0,0,0,0,0,0,0,0,0,0,0,0,0,0,0,0,0,0,0,0,0,0,0,0,0,0,0,0,0,0,0,0,0,0,0,0,0,0,0,0,0,0,0,0,0,0,0,0,0,0,0],"sum_hessian":[2.0464238E2,1.9430656E2,1.0335809E1,1.7252736E2,2.1779217E1,3.918888E0,6.416921E0,1.3397676E2,3.85506E1,3.6517317E0,1.8127485E1,2.4486566E0,1.4702317E0,5.377608E0,1.0393132E0,9.636146E1,3.7615295E1,3.426448E1,4.2861176E0,2.5698187E0,1.081913E0,1.6039108E1,2.0883777E0,1.2676252E0,1.1810312E0,3.971713E0,1.4058948E0,7.398257E1,2.2378891E1,6.797169E0,3.0818127E1,4.3938417E0,2.9870638E1,2.9933457E0,1.2927718E0,1.1103871E0,1.4594315E0,1.3296446E1,2.7426615E0,6.569136E1,8.291206E0,1.9040838E1,3.3380525E0,5.728344E0,1.0688249E0,2.2910034E1,7.9080915E0,1.3893869E0,3.0044549E0,3.601286E0,2.6269352E1,4.6199055E0,8.676541E0,1.4467587E0,1.2959026E0],"tree_param":{"num_deleted":"0","num_feature":"520","num_nodes":"55","size_leaf_vector":"1"}},{"base_weights":[1.84453E-2,-1.3525882E-1,1.21717565E-1,-1.9127522E-1,6.5062535E-1,4.215683E-1,1.2428016E-2,3.580098E-3,-4.3172494E-1,1.08099125E-1,-2.3343716E-2,9.95812E-2,7.3116946E-1,7.671789E-2,-9.019128E-1,3.5208887E-1,-2.2801882E-1,-5.985636E-1,2.890695E-1,-1.403654E-1,7.3267E-1,-1.8731162E-1,9.109678E-1,6.450642E-3,7.767253E-1,1.607222E-2,-1.3238615E0,4.7936805E-2,8.338473E-1,-1.2869719E-1,-1.3208635E-1,-9.572074E-1,-2.2837752E-1,6.4215237E-1,-2.8818372E-1,4.6476284E-1,-3.8470292E-1,9.78795E-2,-8.633216E-3,-6.074169E-2,3.684859E-2,2.5273025E-1,1.1317089E0,5.1883817E-2,-7.508172E-1,1.0348661E0,-2.5459036E-2,-4.105599E-2,-1.4896367E-1,9.4931E-2,-2.0761346E-2,1.1136625E-1,-1.5047567E-2,-3.6601003E-2,1.8736158E-2,1.9792799E-2,-1.1959433E-1,-1.5033163E-3,-7.7309124E-2,-5.2198204E-3,1.0018142E-1,-7.029081E-3,-3.6309868E-2,9.4260596E-2,-4.6216812E-2,-8.8799685E-2,-1.22406315E-2,-1.1892684E-2,7.8632355E-2,2.4650756E-2,1.200704E-1,-8.226416E-3,3.8600467E-2,-1.03618614E-1,1.19648445E-4,1.1509837E-1,1.9847397E-2],"categories":[],"categories_nodes":[],"categories_segments":[],"categories_sizes":[],"default_left":[0,0,0,0,0,0,0,0,0,0,0,0,0,0,0,0,0,0,0,0,0,0,0,0,0,0,0,0,0,0,0,0,0,0,0,0,0,0,0,0,0,0,0,0,0,0,0,0,0,0,0,0,0,0,0,0,0,0,0,0,0,0,0,0,0,0,0,0,0,0,0,0,0,0,0,0,0],"id":23,"left_children":[1,3,5,7,9,11,13,15,17,-1,-1,19,21,23,25,27,29,31,33,35,37,39,41,43,45,-1,47,49,51,-1,53,55,57,59,61,63,65,-1,-1,-1,-1,67,69,71,73,75,-1,-1,-1,-1,-1,-1,-1,-1,-1,-1,-1,-1,-1,-1,-1,-1,-1,-1,-1,-1,-1,-1,-1,-1,-1,-1,-1,-1,-1,-1,-1],"loss_changes":[3.3680022E0,3.8807173E0,4.1505866E0,3.7695446E0,2.4988065E0,3.301083E0,5.5930877E0,3.745877E0,4.503148E0,0E0,0E0,2.798918E0,2.9939804E0,4.3588877E0,3.0158992E0,2.67432E0,2.6633356E0,3.7066126E0,1.7019253E0,2.2058113E0,1.1001887E0,1.0710107E0,1.8162165E0,2.847598E0,2.415876E0,0E0,8.230972E-2,3.0571003E0,2.1253066E0,0E0,2.0628748E0,4.291485E0,1.8317057E0,1.28285E0,3.185007E-2,2.3828464E0,1.2527757E0,0E0,0E0,0E0,0E0,1.0694133E0,3.481846E-1,3.525572E0,1.0066864E0,4.1875076E-1,0E0,0E0,0E0,0E0,0E0,0E0,0E0,0E0,0E0,0E0,0E0,0E0,0E0,0E0,0E0,0E0,0E0,0E0,0E0,0E0,0E0,0E0,0E0,0E0,0E0,0E0,0E0,0E0,0E0,0E0,0E0],"parents":[2147483647,0,0,1,1,2,2,3,3,4,4,5,5,6,6,7,7,8,8,11,11,12,12,13,13,14,14,15,15,16,16,17,17,18,18,19,19,20,20,21,21,22,22,23,23,24,24,26,26,27,27,28,28,30,30,31,31,32,32,33,33,34,34,35,35,36,36,41,41,42,42,43,43,44,44,45,45],"right_children":[2,4,6,8,10,12,14,16,18,-1,-1,20,22,24,26,28,30,32,34,36,38,40,42,44,46,-1,48,50,52,-1,54,56,58,60,62,64,66,-1,-1,-1,-1,68,70,72,74,76,-1,-1,-1,-1,-1,-1,-1,-1,-1,-1,-1,-1,-1,-1,-1,-1,-1,-1,-1,-1,-1,-1,-1,-1,-1,-1,-1,-1,-1,-1,-1],"split_conditions":[9.007864E-4,1.891262E-2,3.9890833E-2,1.9347335E-3,1.003866E-3,4.712141E-2,2.9088646E-1,1.6938776E-1,2.9894536E-2,1.08099125E-1,-2.3343716E-2,3.391888E-2,4.2341256E-1,1.2561986E-2,2.3892003E-3,4.6141857E-1,3.2002803E-2,2.3170598E-3,5.3896826E-2,1.9335229E-2,9.395402E-2,7.185952E-2,1.9210477E-1,1.3100246E-1,3.728754E-2,1.607222E-2,4.7081675E-2,8.640781E-2,1.1369308E-2,-1.2869719E-1,1.0640543E-4,6.0076057E-3,7.1442205E-1,1.1534535E-1,1.1103237E-1,2.3691148E-1,5.928387E-2,9.78795E-2,-8.633216E-3,-6.074169E-2,3.684859E-2,4.070523E-2,4.6026153E-3,6.927009E-1,3.066066E-6,2.969784E-1,-2.5459036E-2,-4.105599E-2,-1.4896367E-1,9.4931E-2,-2.0761346E-2,1.1136625E-1,-1.5047567E-2,-3.6601003E-2,1.8736158E-2,1.9792799E-2,-1.1959433E-1,-1.5033163E-3,-7.7309124E-2,-5.2198204E-3,1.0018142E-1,-7.029081E-3,-3.6309868E-2,9.4260596E-2,-4.6216812E-2,-8.8799685E-2,-1.22406315E-2,-1.1892684E-2,7.8632355E-2,2.4650756E-2,1.200704E-1,-8.226416E-3,3.8600467E-2,-1.03618614E-1,1.19648445E-4,1.1509837E-1,1.9847397E-2],"split_indices":[157,50,40,50,410,194,108,357,485,0,0,40,307,473,63,284,347,473,175,374,126,141,99,34,165,0,2,341,125,0,470,495,172,160,2,454,434,0,0,0,0,322,453,504,303,102,0,0,0,0,0,0,0,0,0,0,0,0,0,0,0,0,0,0,0,0,0,0,0,0,0,0,0,0,0,0,0],"split_type":[0,0,0,0,0,0,0,0,0,0,0,0,0,0,0,0,0,0,0,0,0,0,0,0,0,0,0,0,0,0,0,0,0,0,0,0,0,0,0,0,0,0,0,0,0,0,0,0,0,0,0,0,0,0,0,0,0,0,0,0,0,0,0,0,0,0,0,0,0,0,0,0,0,0,0,0,0],"sum_hessian":[2.1014218E2,8.432632E1,1.25815865E2,7.942188E1,4.904436E0,3.2844677E1,9.297119E1,4.441446E1,3.5007423E1,3.1488206E0,1.7556156E0,1.6748144E1,1.609653E1,8.771948E1,5.2517085E0,1.7524075E1,2.6890383E1,2.8565165E1,6.442258E0,1.27094345E1,4.03871E0,2.6283088E0,1.3468223E1,8.0634544E1,7.0849385E0,1.6686012E0,3.5831072E0,1.14161415E1,6.1079326E0,1.2023888E0,2.5687994E1,1.3703342E1,1.4861821E1,3.9275217E0,2.5147364E0,3.3962126E0,9.313222E0,2.9554403E0,1.0832701E0,1.4439842E0,1.1843245E0,3.920983E0,9.547239E0,7.6949356E1,3.685182E0,5.6638265E0,1.4211121E0,1.0845616E0,2.4985456E0,1.9220271E0,9.494114E0,4.653636E0,1.4542966E0,1.474491E1,1.0943085E1,2.3763227E0,1.132702E1,1.1417575E1,3.4442463E0,1.6319005E0,2.2956212E0,1.1393038E0,1.3754325E0,2.2298102E0,1.1664025E0,2.3734963E0,6.9397254E0,2.7692633E0,1.1517198E0,1.0209808E0,8.526258E0,5.5443027E1,2.150633E1,2.3975096E0,1.2876725E0,4.6430893E0,1.020737E0],"tree_param":{"num_deleted":"0","num_feature":"520","num_nodes":"77","size_leaf_vector":"1"}},{"base_weights":[7.621128E-3,-5.768435E-1,4.3505132E-2,-7.312964E-2,-1.0983531E0,2.4315383E-2,1.04018085E-1,-5.428133E-2,1.9003333E-1,-3.0917388E-1,-1.4793941E-1,8.847939E-2,1.6505448E-3,5.033333E-2,-6.973409E-2,-4.286174E-3,-4.128882E-2,1.5998518E-1,-1.1525163E-1,1.35694565E-2,-2.4082044E-2,2.3372176E-1,-5.04102E-1,1.8686257E-1,-2.0392191E-1,-2.4249822E-2,3.432141E-2,-1.0150663E-1,3.653683E-2,3.5332415E-2,-4.7982957E-2,1.1989605E-2,-3.2265496E-2],"categories":[],"categories_nodes":[],"categories_segments":[],"categories_sizes":[],"default_left":[0,0,0,0,0,0,0,0,0,0,0,0,0,0,0,0,0,0,0,0,0,0,0,0,0,0,0,0,0,0,0,0,0],"id":24,"left_children":[1,3,5,7,9,11,-1,-1,13,15,-1,-1,17,-1,19,-1,-1,21,23,-1,-1,25,27,29,31,-1,-1,-1,-1,-1,-1,-1,-1],"loss_changes":[4.369822E0,3.0859547E0,3.7254136E0,9.9341106E-1,1.301961E0,3.770832E0,0E0,0E0,4.7106516E-1,6.983912E-2,0E0,0E0,3.5253327E0,0E0,1.6647643E-1,0E0,0E0,4.0787945E0,2.973407E0,0E0,0E0,3.9151325E0,4.103054E0,2.9866505E0,3.3140101E0,0E0,0E0,0E0,0E0,0E0,0E0,0E0,0E0],"parents":[2147483647,0,0,1,1,2,2,3,3,4,4,5,5,8,8,9,9,12,12,14,14,17,17,18,18,21,21,22,22,23,23,24,24],"right_children":[2,4,6,8,10,12,-1,-1,14,16,-1,-1,18,-1,20,-1,-1,22,24,-1,-1,26,28,30,32,-1,-1,-1,-1,-1,-1,-1,-1],"split_conditions":[7.333764E-1,7.435215E-2,7.275635E-4,3.8748313E-2,9.058416E-4,0E0,1.04018085E-1,-5.428133E-2,1.10319816E-1,7.4152306E-2,-1.4793941E-1,8.847939E-2,8.920638E-2,5.033333E-2,4.913548E-4,-4.286174E-3,-4.128882E-2,1.584027E-2,4.742139E-1,1.35694565E-2,-2.4082044E-2,1.8040957E-3,4.399075E-2,2.2813441E-1,4.6136123E-4,-2.4249822E-2,3.432141E-2,-1.0150663E-1,3.653683E-2,3.5332415E-2,-4.7982957E-2,1.1989605E-2,-3.2265496E-2],"split_indices":[474,16,462,262,506,515,0,0,206,2,0,0,245,0,14,0,0,435,414,0,0,289,81,290,112,0,0,0,0,0,0,0,0],"split_type":[0,0,0,0,0,0,0,0,0,0,0,0,0,0,0,0,0,0,0,0,0,0,0,0,0,0,0,0,0,0,0,0,0],"sum_hessian":[2.0615874E2,1.1053206E1,1.9510553E2,6.2025433E0,4.850663E0,1.9242502E2,2.6805081E0,1.8457196E0,4.356824E0,2.1692634E0,2.6814E0,3.9621572E0,1.8846286E2,1.5498965E0,2.8069272E0,1.0041436E0,1.1651198E0,7.988988E1,1.0857299E2,1.3694507E0,1.4374765E0,7.248914E1,7.4007373E0,2.43843E1,8.418869E1,1.3323948E1,5.916519E1,4.5559025E0,2.8448348E0,1.9888514E1,4.4957867E0,2.2584549E1,6.160414E1],"tree_param":{"num_deleted":"0","num_feature":"520","num_nodes":"33","size_leaf_vector":"1"}},{"base_weights":[5.8137093E-2,-4.7159437E-2,2.215222E-1,6.4076185E-3,-6.550495E-1,6.1962515E-1,8.5822545E-2,2.1160655E-1,-1.5146963E-1,1.3684106E-1,-9.5926666E-1,1.1997657E-1,2.6844707E-1,-5.88417E-3,7.0851946E-1,3.2973883E-1,-3.2011047E-1,-3.256472E-1,2.4999708E-1,4.91037E-2,-2.5912255E-2,-1.6124956E-2,-1.1428287E0,6.427968E-1,-2.8732306E-1,4.5697722E-1,-9.751376E-2,-3.4995828E-2,1.0623153E0,-2.0850781E-2,5.479578E-1,-6.4839464E-1,4.6070334E-1,-9.255827E-1,-1.8295471E-1,-2.4479581E-1,5.75512E-1,-1.4176749E-1,-3.4851465E-2,8.929255E-1,-4.3579847E-2,-6.255801E-1,5.0635077E-2,9.748902E-2,5.094943E-2,-3.4210995E-1,8.970159E-2,1.2015652E-1,1.9557297E-2,-3.0635318E-2,6.4058654E-2,6.283316E-2,-5.8252748E-2,1.1650332E-3,-8.8376835E-2,-1.1344074E-2,7.504936E-2,5.6200097E-3,-1.3182078E-1,-4.4830195E-3,-8.312361E-2,-7.203421E-2,3.6542445E-2,-1.50188E-2,1.0373207E-1,6.800214E-4,1.0595707E-1,2.969922E-2,-9.5126204E-2,-3.16614E-2,5.8303725E-2,-4.308207E-2,6.672699E-2,3.1597E-2,-3.683924E-2],"categories":[],"categories_nodes":[],"categories_segments":[],"categories_sizes":[],"default_left":[0,0,0,0,0,0,0,0,0,0,0,0,0,0,0,0,0,0,0,0,0,0,0,0,0,0,0,0,0,0,0,0,0,0,0,0,0,0,0,0,0,0,0,0,0,0,0,0,0,0,0,0,0,0,0,0,0,0,0,0,0,0,0,0,0,0,0,0,0,0,0,0,0,0,0],"id":25,"left_children":[1,3,5,7,9,11,13,15,17,19,21,-1,23,25,27,29,31,33,35,-1,-1,-1,37,39,41,43,45,-1,47,49,51,53,55,57,59,61,63,-1,-1,65,-1,67,-1,-1,69,71,73,-1,-1,-1,-1,-1,-1,-1,-1,-1,-1,-1,-1,-1,-1,-1,-1,-1,-1,-1,-1,-1,-1,-1,-1,-1,-1,-1,-1],"loss_changes":[3.599123E0,4.161568E0,4.3725986E0,3.865275E0,2.6244125E0,3.8881803E0,3.559511E0,3.3635263E0,4.7983165E0,6.528142E-1,9.2923784E-1,0E0,3.1309884E0,2.3881896E0,3.367773E0,3.2959285E0,2.8456426E0,3.8951616E0,3.5193613E0,0E0,0E0,0E0,8.192401E-1,2.7553518E0,2.0324383E0,1.9075522E0,2.1806974E0,0E0,5.186095E-1,3.488471E0,2.7736626E0,1.1615744E0,6.7173725E-1,3.4957309E0,3.5088828E0,2.8822832E0,4.496066E0,0E0,0E0,1.0925689E0,0E0,1.763289E0,0E0,0E0,1.4113244E0,2.1288257E0,2.9551811E0,0E0,0E0,0E0,0E0,0E0,0E0,0E0,0E0,0E0,0E0,0E0,0E0,0E0,0E0,0E0,0E0,0E0,0E0,0E0,0E0,0E0,0E0,0E0,0E0,0E0,0E0,0E0,0E0],"parents":[2147483647,0,0,1,1,2,2,3,3,4,4,5,5,6,6,7,7,8,8,9,9,10,10,12,12,13,13,14,14,15,15,16,16,17,17,18,18,22,22,23,23,24,24,25,25,26,26,28,28,29,29,30,30,31,31,32,32,33,33,34,34,35,35,36,36,39,39,41,41,44,44,45,45,46,46],"right_children":[2,4,6,8,10,12,14,16,18,20,22,-1,24,26,28,30,32,34,36,-1,-1,-1,38,40,42,44,46,-1,48,50,52,54,56,58,60,62,64,-1,-1,66,-1,68,-1,-1,70,72,74,-1,-1,-1,-1,-1,-1,-1,-1,-1,-1,-1,-1,-1,-1,-1,-1,-1,-1,-1,-1,-1,-1,-1,-1,-1,-1,-1,-1],"split_conditions":[1.1639785E1,2.900815E3,3.0696145E-3,2.2454364E-2,6.35523E-1,5.891381E-2,2.407302E-2,2.1275628E-1,7.6293247E-4,3.5267347E-1,2.826152E-3,1.1997657E-1,1.1955853E-2,1.9690733E1,1.47217475E-2,1.2001443E-2,2.645609E-3,1.568474E-1,5.929135E-3,4.91037E-2,-2.5912255E-2,-1.6124956E-2,8.695351E-2,5.7823644E-3,4.667591E-2,1.8364333E0,1.62E2,-3.4995828E-2,8.84116E-3,8.60875E-3,2.5815278E-2,1.548635E-2,1.618149E-2,4.1734934E-1,7.8389654E-4,3.0562622E-3,5.9909057E-2,-1.4176749E-1,